economic -0.439006 0.101834 0.602667 -0.438852 -0.278995 -0.714408 -0.122047 0.235127 0.231924 0.261789 0.479483 -0.687028 -1.232172 -1.039646 -0.194442 0.300922 -0.540058 -0.203704 0.200863 -0.215125 -0.050077 -0.077158 -0.633315 0.372497 -0.576465 0.152941 -0.220076 0.267244 -0.298687 -0.388349 -0.459096 -0.184626 0.544754 -0.889551 -0.621049 -0.178099 0.347435 -0.249184 0.711035 -0.962405 -0.331598 -0.740190 0.631000 0.565247 -0.204857 0.305351 -0.420212 -0.066798 0.193762 0.092124 -1.111945 -0.034549 0.494899 -0.876432 0.274949 0.722190 -0.723574 -1.209491 -0.317892 -0.939014 0.564918 -0.103336 1.250113 0.844260 -1.229251 -0.267188 -0.660141 -0.084932 0.421245 -0.684270 1.199187 0.349223 -0.037518 -0.891055 0.224795 0.059389 -0.396464 -0.259782 -0.178613 -0.605393 -0.005035 0.032491 -0.268956 0.244294 -1.042490 1.469980 -0.464516 -0.413214 -0.215560 -0.456937 0.687412 -0.495854 -0.069385 0.862385 -0.271615 -0.239913 0.658917 0.397054 0.110048 0.689520
economy -0.224468 -0.232521 0.251588 -0.493505 0.205132 -0.499439 -0.790680 -0.634264 -0.325663 0.068248 1.026223 -0.497958 -0.677680 -0.458159 -0.177771 -0.253636 -0.115672 -0.091093 -0.030193 0.027063 0.436547 -0.129744 -0.364444 0.065759 0.348397 0.343979 -0.359549 0.362246 -0.877072 -0.248338 -0.808498 0.091386 0.129633 -0.035049 -0.933741 0.354310 -0.596244 0.056978 0.289482 -0.400938 -0.794897 -1.037994 1.338224 0.709275 0.011872 0.363316 -0.061071 -0.411462 0.234722 -0.055857 -0.190244 -0.043806 0.265986 0.029297 0.503609 0.254526 -0.706334 -0.769326 -0.245712 -0.377514 1.124270 -0.245932 1.173899 0.337438 -0.915666 0.651373 -0.866626 -0.815083 0.397490 -0.033072 0.898496 -0.596064 -0.651228 -0.988468 0.268282 0.359950 -0.225628 -0.176226 0.567980 0.058072 0.709507 0.272129 0.344932 0.656248 -0.972672 1.073389 0.150191 -0.374920 -0.309664 -0.304192 0.331338 -0.381982 0.074167 0.477004 -0.006707 -0.119072 -0.026762 0.362523 0.389569 0.349541
