could 0.679334 0.423552 -0.508431 -0.375900 0.023355 -0.689800 -0.124788 0.249138 -0.008547 1.013003 0.016742 -0.375732 0.407118 -0.681629 0.082371 -0.458579 -0.172592 -0.201306 -0.703407 0.107248 -0.098460 0.103081 -0.114267 0.584341 0.226578 -0.115123 -0.439961 1.121348 -0.339950 -0.251351 -0.212759 -0.783477 0.239620 -0.397506 -0.478928 0.211671 -0.130004 0.033866 0.513277 -0.445987 -0.096853 -0.491020 1.096924 0.120609 -0.301674 0.367261 -0.203589 0.222291 0.045496 0.668013 0.281447 -0.385634 0.430590 -0.197991 0.454890 -0.395195 -0.311644 0.005203 0.070646 -0.633009 1.268941 -1.083704 0.284293 0.790084 -0.101469 -0.152050 -0.295634 0.287129 0.601300 -0.271487 0.912988 0.970368 0.371343 -1.012436 0.904918 -0.180508 0.133701 0.341574 -0.110794 -0.990028 0.234236 0.337108 0.794116 -0.327302 -0.216599 0.517546 -0.209587 -0.603355 -0.216424 0.392356 0.103489 0.021287 -0.485309 -0.013126 -0.114794 0.058988 -0.474871 0.243847 -0.231963 -0.016856
may -0.143600 -0.245228 -0.060401 0.231509 -0.002629 -0.980282 -0.580508 0.320095 0.031669 1.136905 -0.045566 0.147123 -0.053848 -0.924094 0.164648 -0.734195 -0.054071 0.114751 -0.604370 -0.027830 -0.482716 0.078414 -0.031641 0.075902 -0.115383 -0.110423 -0.660841 1.044692 0.104777 0.057023 -0.129984 -0.450252 0.542425 -0.242907 -0.267793 -0.168794 0.019320 -0.149081 0.926404 -0.384353 -0.277769 -0.072717 0.982829 0.457863 -0.136520 0.439977 0.219433 -0.134813 -0.264840 0.213030 0.504646 0.041288 -0.392989 0.007996 -0.019692 -0.669521 -0.287109 -0.272344 -0.030850 -0.147594 1.095960 -0.421474 0.051783 0.863017 -0.178113 -0.031659 -0.267799 -0.052952 0.912153 -0.193373 0.087355 1.033663 -0.397707 -0.422189 -0.058081 -0.426598 -0.253062 0.750367 -0.457873 -0.792395 0.269408 -0.160606 0.630117 -0.587830 -0.017212 0.156795 -0.157266 -0.318273 -0.756823 0.288725 0.350061 -0.166711 -0.150328 -0.104161 0.127054 0.196599 -0.456467 0.316567 -0.075505 -0.068548
possible 0.525291 0.361561 0.475215 -0.117780 0.535660 -0.252420 -0.067544 0.750393 0.127419 0.455203 0.108730 -0.758175 0.302591 -0.992123 -0.049894 -0.313759 -0.083427 0.405297 -0.874320 -0.159254 0.211622 -0.108111 0.015300 -0.305933 -0.460647 0.296182 -0.577543 0.933550 -0.337422 -0.144998 -0.034248 -0.773342 0.530701 -0.658905 -0.264566 -0.841481 0.291099 -0.003612 -0.224939 -0.318155 -0.590439 0.260949 0.450026 0.125539 -0.300804 0.218381 -0.442676 0.204009 -0.125150 0.257297 0.142913 -0.272938 0.616587 -0.175903 -0.180661 -0.091318 -0.032524 0.248043 -0.468992 -0.006082 1.111708 -0.491036 0.247821 0.588968 -0.125663 0.146174 0.275129 0.505973 0.124460 0.279217 0.336278 1.163048 -0.156062 -0.702918 0.652988 -0.329189 -0.206576 0.377249 -0.035381 -0.216727 0.298011 0.166363 0.897268 -0.111169 0.128469 0.726389 -0.362888 -0.227105 -0.054724 0.278310 -0.361467 0.372300 -0.101077 0.091835 -0.297483 0.059823 0.231792 0.119480 0.131921 0.286548
might 0.480000 0.235972 -0.062466 0.058464 0.004046 -0.921859 0.060767 0.252035 0.016045 0.892495 0.217608 -0.249696 0.130014 -0.224381 0.014312 -0.376504 0.229280 0.364973 -0.603898 -0.284122 -0.434853 0.374760 0.112900 0.261197 -0.211217 0.530187 -0.011200 0.894721 -0.306287 -0.135549 0.343082 -0.722369 -0.067777 -0.380285 -0.435897 -0.016411 0.168133 -0.137219 0.488948 -0.539961 -0.189511 -0.156680 0.485296 0.303040 -0.357206 0.097246 -0.331732 -0.001186 -0.208777 0.081906 0.364537 -0.374166 -0.179092 -0.093139 0.313905 -0.250886 0.034772 0.139810 -0.208930 -0.180179 1.242803 -0.263294 0.181613 0.486232 0.139743 0.205852 0.208120 0.308233 0.414574 -0.154684 0.509700 0.670050 0.104696 -0.672524 0.417170 -0.401125 0.253195 0.293615 -0.267483 -0.811480 -0.010599 0.297869 0.034700 -0.327475 -0.308585 0.115317 0.024401 -0.216649 -0.555535 0.269186 0.213100 0.122814 -0.391880 0.145931 -0.336812 -0.087080 -0.237773 0.423782 -0.213356 -0.213733
risk -0.013136 0.180628 0.121868 -0.385926 0.160477 0.023161 -0.108218 0.106539 0.596196 0.314899 -0.139159 -0.644089 0.362315 -0.457175 0.103332 -0.837095 0.113706 -0.002015 -0.588336 -0.396748 -0.230998 0.390768 -0.492761 0.477200 0.507977 1.031196 -0.263582 0.974204 -0.000529 -0.668463 -0.787133 -0.113688 0.350545 0.000101 -0.024570 0.116744 0.189385 -0.020163 -0.113158 -0.898103 -0.124477 -0.470107 0.749089 0.265799 -0.291393 0.235140 -0.497396 -0.250273 -0.177707 0.420891 0.230258 -0.261116 -0.001039 -0.069811 -0.176156 0.015000 -0.278206 0.167347 0.547322 -0.293202 1.386314 -0.167091 0.241713 0.745245 -0.205467 -0.185974 -0.322387 -0.427828 0.854869 -0.293136 0.840385 0.419775 0.701308 0.212567 0.409617 -0.450555 -0.080142 0.049281 -0.393061 -0.104390 -0.314039 0.006812 0.193126 0.040614 -0.401757 0.514803 0.084457 -0.289325 -0.538761 -0.051454 -0.148853 0.039736 0.467314 0.452660 -0.215066 -0.329678 0.460887 -0.761429 0.457159 0.551150
almost -0.032237 0.017592 -0.303477 -0.490194 0.714087 -0.242873 0.461901 0.114597 0.071750 0.767021 0.301816 -0.300764 -0.194753 -0.772754 -0.131681 0.074566 -0.444072 -0.399930 0.325637 0.363204 0.304112 -0.253878 0.052251 -0.071914 0.538509 0.219429 -0.742813 0.837957 -0.229317 -0.518993 -0.332873 0.090945 -0.081708 -0.032308 -1.019819 -0.238223 -0.552124 -0.116680 0.172023 -0.275424 -0.237224 -0.090907 0.652458 -0.482043 -0.466257 0.068170 0.069774 0.285180 -0.255599 0.384752 0.383679 1.285036 -0.104060 0.883369 0.179206 -0.334987 0.159663 -0.599772 0.417937 0.261531 0.224504 -0.612669 0.385881 0.558150 -0.125254 0.636895 -0.254768 0.237034 -0.231524 0.320541 0.462066 -0.229081 0.591638 0.168386 0.365626 0.266189 -0.781194 0.054785 -0.152470 0.320967 0.239020 0.220723 -0.147232 0.514749 0.083933 0.271346 -0.427016 -0.230111 -0.001936 0.531433 -0.003314 0.003168 -0.050540 -0.532296 0.315873 0.052229 -0.447156 0.131304 0.106058 -0.112295
nearly -0.313695 0.415087 0.183757 -0.319838 0.531238 0.199525 0.035462 -0.403800 0.463720 0.514931 -0.404029 -0.155372 0.022359 -0.645645 -0.188513 -0.212221 -0.515461 -0.344485 0.326985 0.254772 0.219939 -0.425413 -0.804988 -0.331842 0.604636 -0.152276 -1.015675 0.076764 -0.187824 -0.231694 -0.740994 0.347507 -0.076821 -0.077279 -0.690914 0.492209 -0.511607 0.033037 0.229725 0.028853 -0.591179 -0.002044 0.470238 -0.708015 0.013592 0.000677 -0.173798 0.088012 -0.050716 0.487894 0.132960 1.688790 -0.045163 1.286889 -0.089226 -0.553764 -0.489260 -0.692612 0.146880 -0.155808 0.445201 -0.545919 0.403309 0.746248 0.272162 0.515358 -0.295741 -0.175806 0.202431 0.181377 -0.050083 0.338414 0.490264 -0.130368 0.026304 0.655207 -0.529329 0.335039 -0.233872 0.067033 -0.106927 -0.145972 -0.039184 0.190112 0.058506 0.563648 -0.624588 -0.450029 0.355249 0.204875 0.198108 -0.387153 -0.392516 -0.115064 -0.100089 0.511113 -0.225353 0.054540 -0.136516 0.066447
believe 0.533952 0.011900 -0.285992 -0.395308 -0.052578 -0.591828 -0.152375 0.342254 -0.430449 0.340051 0.285721 -0.189454 0.327187 -0.129749 -0.062582 0.044787 -0.027166 0.297835 0.043533 -0.626459 -0.202446 0.123130 0.277086 -0.152934 -0.163177 0.109615 -0.246029 0.777619 -0.239219 -0.601489 0.496649 -0.504595 -0.473784 0.142248 -0.491237 -0.544561 0.165266 0.158944 0.520748 -0.116655 -0.647671 0.254314 0.784215 -0.010529 -0.378574 0.235472 -0.381860 0.514730 -0.191235 0.116096 0.394731 -0.134642 -0.462856 -0.503021 0.571239 -0.678523 -0.604289 0.004827 0.188562 0.388543 0.993109 -0.331012 -0.330116 0.777357 -0.032877 -0.022045 0.190376 0.145044 0.428911 0.091128 -0.014930 0.715912 -0.255537 -0.157141 0.352286 -0.475572 0.104990 0.389126 0.304745 -0.158250 -0.121749 0.408378 -0.452447 0.082434 -0.265346 0.616140 0.365485 -0.603778 -0.918624 0.227811 -0.213998 0.279609 0.104826 0.500573 -0.143485 0.156714 0.058034 -0.090356 -0.462376 0.336324
appeared -0.025170 0.446009 -0.431168 0.115379 -0.350388 -0.919698 -0.050333 0.438524 -0.005723 0.946391 0.645761 -0.125963 0.130563 0.134072 0.245893 -0.125354 0.126410 0.088411 -0.566535 0.096781 -0.099199 -0.056188 0.101622 0.010972 0.500422 -0.318272 0.114989 -0.007729 -0.023630 0.230277 0.580223 -0.621753 -0.065644 0.231782 0.347269 -0.337287 -0.157008 -0.147653 0.154639 -0.002867 -0.252008 0.096775 0.443831 0.417487 0.586459 -0.039572 -0.243641 0.029409 -0.146542 0.454657 0.254973 0.024307 0.458392 0.483187 -0.031320 -0.022073 -0.096916 0.135827 0.187285 0.394446 -0.013783 -0.490015 -0.172453 -0.038493 -0.110320 -0.385729 -0.172270 -0.549106 0.982182 -0.266505 -0.550089 0.595188 -0.342785 -0.256136 0.328183 0.374309 0.149018 -0.401826 0.474616 -0.033057 0.117231 0.363208 -0.125015 -0.478523 -0.190066 0.286447 -1.032923 0.071456 -0.006967 0.547981 0.160678 -0.532066 -0.162209 -0.252642 -0.355432 -0.265102 -0.343399 0.250736 0.245698 -0.082396
risks 0.147984 -0.048348 0.275740 -0.150544 0.386095 0.433652 -0.092552 0.255189 0.451200 -0.143193 0.287948 -1.192637 -0.643183 -0.529482 0.319256 -0.731650 0.417248 0.194259 -0.674447 -0.207390 0.259649 -0.032636 -0.424229 0.545112 0.311928 0.781025 -0.414453 0.456404 -0.246646 -0.480742 -0.798992 -0.548123 0.269823 -0.488000 -0.368496 -0.382008 -0.105220 -0.188763 -0.308441 -1.055315 0.148819 -0.213984 0.491671 0.596071 0.091760 0.404510 -0.071780 -0.514044 0.001307 0.223497 -0.016620 -0.467339 0.090381 -0.034004 -0.171454 0.421929 -0.330312 -0.151534 0.378402 -0.210918 1.255278 0.492392 0.599404 0.235223 -0.513280 0.001061 -0.499376 -0.425691 0.560807 -0.395027 0.464911 0.104208 0.581336 -0.368291 0.092073 -0.659023 -0.209301 -0.095427 -0.300439 -0.175121 -0.226057 -0.251976 -0.013103 0.187422 -0.210571 0.201923 -0.147733 -0.268579 -0.326116 -0.071426 -0.223545 0.114598 0.287055 0.058385 -0.447438 0.178252 0.341854 -1.343239 0.439128 0.421079
believed 0.028315 -0.356549 0.124561 -0.461820 -0.142141 -0.384885 0.496395 -0.180063 -0.113535 0.146132 0.062533 -0.017640 -0.037955 -0.169022 -0.007223 -0.061086 -0.023181 0.130066 0.559169 -0.261683 0.152537 -0.310412 -0.390953 -0.016727 0.117990 -0.077014 0.052317 0.179292 -0.100795 -0.044097 -0.156106 -0.034839 -0.429977 0.107479 -0.354909 -0.038066 0.177232 0.420421 0.383070 -0.128241 -0.124958 -0.284004 0.491036 -0.103848 -0.577330 0.154375 -0.300897 -0.262518 0.146142 0.643297 0.269009 -0.270634 -0.257029 0.010724 0.095877 -0.552497 -0.266685 0.244801 -0.017462 0.201602 0.086251 -0.731057 -0.225600 0.817876 0.213839 -0.346235 0.253967 0.055304 0.264410 0.509820 -0.380709 0.935781 0.417096 -0.055871 0.542714 0.439241 0.032828 0.333992 0.502172 -0.193153 0.333968 0.067772 -0.234452 -0.638202 -0.089701 0.274842 -0.130557 -0.565380 -0.662012 0.466125 -0.414160 -0.588475 0.159284 0.159949 -0.283957 -0.091228 -0.294036 -0.186002 -0.201062 -0.231433
suggested -0.069617 0.240757 -0.052508 0.088009 -0.007302 -0.666456 0.276296 0.293994 0.031405 -0.335892 0.103777 -0.156489 0.150763 -0.036502 0.011718 -0.341798 -0.206166 0.232712 -0.698013 -0.155725 -0.131739 -0.234624 0.439876 0.256702 0.179671 0.343659 0.083764 0.371702 -0.256290 0.312347 0.256918 -0.302165 -0.110001 0.379041 -0.685741 -0.207502 -0.007773 -0.186265 0.368398 -0.166667 -0.588692 -0.330181 0.472114 0.156463 0.204488 0.542166 -0.193595 -0.261141 -0.108008 0.530466 -0.166801 -0.147682 -0.180759 -0.423374 -0.095765 -0.111514 0.133049 0.348842 0.411241 -0.007487 0.370013 -0.457173 -0.243036 0.099318 -0.181435 0.142025 -0.486018 -0.029722 0.079406 -0.314073 -0.235330 0.790754 -0.002399 -0.411171 0.088376 0.073552 0.171801 0.072780 0.084455 -0.622699 -0.311737 -0.286095 0.504153 -0.280679 -0.401301 0.321940 -0.504450 0.052899 -0.518993 0.873313 0.005007 -0.309808 -0.096495 -0.073457 -0.452329 -0.187985 -0.186719 0.083038 0.006337 -0.010067
probably 0.191030 -0.158282 0.313121 -0.476980 0.213498 -0.347760 0.039478 -0.159573 -0.033592 0.725900 0.401213 0.007278 0.159547 0.123894 0.444861 0.286493 0.164985 0.122254 0.183047 -0.377992 -0.157469 0.217792 0.190236 0.143718 -0.037832 0.139665 0.113676 0.463662 -0.223299 -0.068802 -0.330237 -0.038341 0.142956 -0.309200 -0.533483 -0.008887 -0.386259 -0.064557 0.375590 -0.455785 -0.288992 -0.142274 0.538865 -0.060035 -0.564141 0.240842 0.160555 -0.103582 0.225820 0.381473 0.667636 -0.121544 -0.357782 0.057922 0.549363 -0.472788 0.140224 -0.143599 0.025913 0.293092 0.687551 -0.098919 -0.178331 0.655739 0.065576 0.124697 0.016581 0.057340 -0.005072 -0.011039 0.412640 0.491812 0.236245 -0.156113 0.514373 -0.124674 0.424586 0.072815 -0.009839 -0.213026 0.109378 -0.273599 -0.114432 -0.115552 -0.303014 0.273890 0.376280 -0.033330 -0.675999 0.253756 -0.132954 0.167067 0.039938 0.187476 -0.443646 0.105559 -0.269472 0.152501 -0.216231 -0.042060
possibility 0.300520 0.337885 -0.204320 -0.245306 0.005532 -0.488174 0.337557 0.451845 0.200933 -0.296887 -0.532660 -0.030423 0.674048 -0.932166 0.120328 -0.282978 0.416063 0.197297 -1.155421 0.171281 0.365785 0.249290 -0.206875 -0.273902 -0.207361 0.815289 -0.106891 0.533975 -0.725940 -0.149143 -0.412329 -0.423911 0.218728 -0.280888 -0.861167 -0.681203 -0.189802 -0.125265 -0.350953 -0.559703 0.175713 -0.158471 0.070202 1.241677 -0.126934 0.212225 -0.690358 0.143373 0.243864 0.227317 0.078895 0.170362 0.332526 -0.522881 0.272030 0.117557 -0.311687 0.541157 -0.008807 -0.122677 0.220595 -0.525255 -0.078397 -0.032672 0.054806 0.250010 0.717770 0.797962 0.287802 -0.004408 -0.004193 0.390198 0.476709 -0.411192 0.613741 -0.165349 0.067088 0.206427 -0.243066 0.180222 0.062525 0.146477 0.231555 0.008025 -0.033887 -0.007249 0.018418 -0.135647 -0.272053 0.483471 -0.150534 -0.262542 -0.419632 0.711216 0.278271 -0.060299 0.384238 -0.379464 0.047672 -0.114489
exposure -0.791622 0.497574 0.046523 0.245592 0.025282 0.761262 -0.172229 -0.148863 0.481770 0.079068 0.129964 -0.464217 -0.240911 -0.734656 -1.105628 -0.810437 -0.886322 0.213043 -0.049866 -0.494060 0.429724 0.659778 -0.484710 0.151718 0.812797 1.496371 -0.723950 0.837045 0.054045 -0.455823 -0.673903 0.460263 0.051954 0.319098 -0.029209 0.457398 -0.217005 0.398116 -0.222876 -1.337386 -0.689909 0.361350 0.875146 0.016326 -0.774488 0.806038 -0.620449 -0.142015 0.364695 0.034426 0.105590 -0.211908 0.322124 0.376280 -0.658609 -0.389640 -0.545538 -0.361558 -0.063170 -0.043319 0.701265 0.157471 0.723466 -1.312588 0.609351 -0.907426 -0.742847 0.343168 0.194233 0.603995 0.700489 0.262281 0.360851 0.170258 0.271890 -0.147498 -0.330289 -0.462338 -0.485186 0.351342 -0.395475 -0.659521 -0.501525 0.230260 0.040791 0.267712 0.323206 0.191415 1.071948 0.361407 0.170596 0.056327 0.037129 -0.245751 -0.501690 0.283311 -0.195449 0.151482 0.770501 -0.637713
seems -0.056093 -0.122615 -0.122665 -0.134819 -0.040555 -0.529523 0.301254 0.198036 0.208938 0.868418 0.671138 0.065708 0.212383 -0.197346 0.500653 0.121954 -0.039285 0.287689 -0.285799 -0.072707 -0.434920 -0.358461 0.006737 -0.189275 0.193738 0.651665 0.261297 0.454630 -0.579523 -0.281239 0.115958 -0.271117 -0.082816 -0.138693 -0.194630 -0.087802 -0.026343 0.283933 0.323437 -0.059927 -0.516763 -0.083222 0.532836 0.027488 -0.677049 -0.807053 0.019953 0.124773 -0.098358 0.214201 0.627825 0.035948 -0.428000 -0.087209 0.416436 0.114530 -0.051653 0.023885 -0.031575 0.025304 0.182239 0.004847 -0.220983 0.709755 -0.212625 0.196985 0.015740 0.296385 0.079459 -0.207828 -0.083391 -0.149236 -0.181216 -0.004905 0.377767 -0.281054 -0.244462 0.165588 0.481434 -0.090639 0.401765 0.422984 -0.293671 0.256935 -0.234949 -0.117723 -0.054757 0.271603 -0.554433 0.230699 -0.007886 -0.050190 0.289224 0.160328 0.004634 -0.114617 -0.177148 0.233476 -0.496229 -0.041821
appears -0.090943 -0.130757 -0.011198 -0.345252 -0.412346 -0.597130 0.511879 0.257945 0.002555 0.985771 0.856397 -0.361841 -0.379488 -0.153767 0.570734 0.302301 -0.118248 0.237832 -0.580327 -0.114679 0.034948 -0.512536 0.207447 -0.224827 0.457175 0.790296 -0.048820 0.309045 -0.336840 0.335339 0.501617 -0.231873 0.119381 0.120660 -0.243642 -0.397786 -0.110063 0.239192 0.323608 -0.521474 -0.411381 -0.010373 0.316073 0.379435 -0.082219 -0.126811 -0.041196 0.045092 -0.272631 0.284207 0.020888 -0.306947 -0.063041 0.199068 0.106460 -0.181143 -0.157090 -0.018693 -0.228527 0.282492 0.011988 -0.178811 -0.343762 0.631952 0.357896 -0.324515 -0.104337 0.074739 0.156984 -0.206232 -0.274878 0.261232 0.071287 0.004820 0.305301 0.056985 0.009325 -0.055674 0.347785 -0.070627 -0.384689 -0.276466 -0.173083 -0.418293 0.138169 0.154799 -0.495108 0.088821 -0.574144 0.609231 -0.008621 -0.827834 -0.310528 -0.102370 -0.186588 -0.268360 0.160877 0.045839 -0.050170 -0.346126
perhaps -0.017290 0.320277 0.074458 -0.303861 -0.001318 -0.537070 0.441643 -0.021783 0.087482 0.660277 0.086628 0.186270 0.501036 0.009468 0.288166 0.218017 0.101409 -0.021951 0.084275 -0.113594 0.372892 0.080414 0.000740 -0.125404 -0.099299 0.351060 0.166222 0.247822 -0.519121 -0.572599 -0.038603 0.163583 -0.214854 -0.133664 -0.766200 -0.324065 -0.370460 -0.043710 0.414217 -0.231863 0.059137 0.027408 0.531933 0.110063 -0.720734 -0.531386 -0.153215 -0.131189 -0.093543 0.178556 0.449349 0.482186 -0.151831 0.304334 -0.165671 -0.307084 0.182351 0.164940 -0.280042 -0.085787 0.419498 0.296122 0.243769 0.551333 0.270269 0.486653 -0.081427 -0.038757 0.259230 -0.199282 -0.289509 -0.147593 0.210035 0.235302 0.649270 -0.535424 0.128174 0.113144 0.337622 -0.084130 0.180825 -0.026035 -0.003243 -0.317127 -0.124715 0.098375 0.139780 0.057219 -0.408017 -0.263542 -0.039978 0.121338 -0.058171 0.039414 -0.168669 -0.316814 -0.408134 0.201083 -0.025585 0.177214
unclear -0.073388 0.293875 -0.314784 0.319608 0.442070 0.065488 0.384499 0.603612 -0.459319 0.124916 0.620524 -0.376029 0.314093 0.152814 -0.004647 0.274738 -0.085534 0.409298 -0.535301 0.389606 0.122807 -0.087742 -0.496120 -0.057784 0.070091 -0.124509 -0.216059 0.528303 -0.336385 0.140891 -0.609901 0.354020 0.114321 -0.081026 0.003850 -0.058286 0.215816 -0.036908 -0.072395 -0.127185 -0.488022 0.247178 0.469287 0.231268 -0.608808 0.007869 -0.111203 -0.108864 -0.063439 0.996974 0.328404 -0.244880 -0.195084 0.304376 0.081980 -0.424994 -0.148741 0.043897 -0.202913 0.068608 0.250787 0.149762 -0.329806 0.521164 0.054922 -0.523063 -0.193442 0.748443 -0.190638 0.291472 0.486669 0.335613 0.708594 -0.534841 0.202032 0.122059 0.881134 0.182757 0.487555 -0.401468 0.049232 0.581644 -0.077452 -0.515168 0.074332 0.158443 -0.311675 -0.063880 0.077898 0.456829 -0.105503 -0.844135 -0.148849 0.641141 -0.938084 0.123081 -0.159266 -0.107070 -0.650602 -0.344606
appear 0.373293 0.304997 0.132795 0.158387 0.153037 -0.460837 0.021847 0.323529 0.009146 0.629407 0.576738 0.177611 0.397341 0.099243 -0.323811 0.050045 -0.452045 0.414177 -0.289082 0.077648 -0.043173 0.082526 0.155979 -0.203648 0.583205 0.123425 -0.046535 0.295538 -0.147864 0.230815 0.253742 -0.507745 0.089176 0.191063 0.101573 0.177678 0.453126 0.374173 0.434219 -0.456641 -0.309087 0.364149 0.606136 0.323339 -0.038161 0.111317 -0.263763 0.290297 -0.032841 0.448960 0.066744 -0.541937 -0.072897 0.625513 -0.124474 -0.282764 0.227687 0.158276 -0.323443 0.090184 0.540887 0.099698 -0.150926 0.329167 0.130662 -0.222622 -0.236509 -0.613486 0.452546 -0.036035 -0.410173 0.351407 -0.204470 -0.142438 0.000266 -0.080299 0.176664 0.091068 0.326645 -0.069256 -0.135550 -0.015117 -0.109205 -0.337259 0.366587 -0.201967 -0.170370 -0.074561 -0.272895 0.342840 0.088293 -0.395106 0.276554 -0.330970 -0.458346 -0.579050 0.016679 0.031833 -0.118419 -0.141585
believes -0.516813 -0.537850 -0.146691 -0.268935 0.093393 0.015847 -0.124199 -0.109031 -0.204324 0.092132 0.007222 -0.103522 0.287512 0.187344 0.363612 -0.195990 0.072227 0.003810 0.145871 -0.687823 -0.242249 -0.145590 -0.050216 0.179297 0.028150 0.573681 0.218727 -0.176838 -0.417502 -0.313079 0.062689 -0.179284 -0.060411 0.044498 -0.303305 0.059773 0.102107 0.056150 0.236641 -0.187298 -0.267664 -0.283321 0.352632 -0.233731 -0.157598 -0.397789 -0.302349 -0.226032 -0.119600 -0.097297 -0.274001 -0.231111 -0.278897 -0.202830 0.329962 -0.337833 -0.294621 0.429022 -0.115573 0.368546 0.150715 -0.159590 0.011272 0.712959 0.099983 -0.016754 -0.158983 0.054520 0.015103 -0.085411 -0.139800 0.544952 -0.038717 -0.648761 0.089810 -0.045706 -0.022003 0.428689 0.079600 0.005134 0.143527 0.323521 -0.067975 -0.463826 0.514695 0.275256 0.163901 -0.502726 -0.675621 0.156286 -0.308037 -0.147334 0.211676 0.025930 -0.398710 -0.143316 -0.062183 -0.233593 -0.434377 -0.073933
sometimes 0.584249 -0.031457 -0.229889 0.310368 -0.021382 -0.642739 0.516273 0.292116 0.134209 0.920164 -0.217711 -0.421649 0.059728 0.239268 -0.112489 0.097970 -0.383365 0.195895 -0.008656 -0.191772 -0.423881 -0.128031 0.261686 0.012158 0.122597 0.093688 0.036169 0.626264 -0.253311 -0.254474 0.244040 -0.619272 -0.838241 -0.616532 -0.046121 -0.309075 0.271274 0.333864 -0.095540 -0.088696 0.074041 -0.125215 -0.001005 -0.037678 0.071033 -0.245675 0.023336 0.095978 0.499228 -0.106904 0.435957 -0.125477 -0.202155 0.648456 0.098799 -0.027875 -0.237742 -0.376400 0.230131 0.489564 -0.255973 0.170358 -0.296159 0.099228 -0.430146 0.076539 -0.012974 0.247361 0.204891 0.439255 -0.113559 -0.328412 0.127728 0.447158 0.242751 -0.252046 0.150205 -0.406219 -0.222847 -0.375744 -0.022584 0.197604 0.108355 0.587052 -0.081935 0.412618 0.005677 0.474301 -0.381462 -0.311075 0.099879 0.305511 0.028820 -0.396564 0.027126 0.307792 -0.365938 -0.074190 -0.097377 0.200589
suggest 0.340904 0.318928 0.072328 0.164104 -0.476462 -0.562395 -0.365965 -0.154905 0.185117 0.420166 0.552512 -0.172367 -0.265273 -0.175620 0.324386 -0.535630 -0.267462 0.302199 0.508212 -0.235312 -0.339525 0.183941 0.205463 0.318500 1.016295 0.237554 0.246202 -0.169062 -0.575703 -0.018050 0.150783 -0.118137 -0.584148 0.022827 -0.455904 -0.342093 0.133443 0.389159 0.844017 -0.372095 -0.596841 -0.054318 0.641886 0.103107 0.205965 0.552899 0.405579 0.020493 -0.938488 0.538287 -0.544515 -0.242630 0.062214 0.824344 -0.200926 -0.119733 0.029761 0.495727 -0.183720 -0.190354 0.274347 -0.245780 0.233829 0.108287 0.086228 -0.305304 -0.231435 0.049748 0.317090 -0.107884 -0.754938 0.791117 -0.256190 -0.216028 0.074953 -0.474997 0.487973 0.791324 0.372138 -0.423541 -0.518767 -0.321179 0.096941 -0.517907 0.118365 -0.185184 -0.233478 -0.242330 -0.498654 0.476311 0.174441 -0.235872 0.275684 -0.102670 0.111848 -0.394862 -0.181772 0.104941 0.211614 -0.508123
doubt 0.299439 -0.052125 -0.614354 -0.016986 0.462034 -0.457203 0.042488 0.385795 0.076286 0.153101 0.662905 0.094652 -0.528401 0.193896 0.516844 0.005919 -0.034446 0.195717 -0.205508 -0.323717 0.139617 0.045785 -0.303855 -0.040826 -0.367294 0.216967 0.612144 0.325971 0.117077 -0.362402 0.370381 0.053257 -0.440281 0.361964 -0.198171 -0.716325 0.118443 -0.094123 0.181878 0.418221 -0.598914 -0.055834 0.655685 0.090464 -0.003912 -0.646179 -0.436329 0.371263 -0.058255 0.306738 0.077173 0.114070 -0.636294 0.359284 -0.139472 -0.045738 -0.614711 0.677617 0.026864 -0.192741 0.076689 0.632034 0.321328 0.536183 0.288977 -0.415126 0.032910 0.267532 -0.119783 -0.280586 0.590659 -0.095808 -0.229937 -0.707078 0.033788 -0.289255 0.752036 0.589480 0.221665 -0.065928 0.630047 0.548460 -0.097138 -0.264674 -0.309523 0.509915 0.038841 -0.027099 -0.497578 0.009035 0.310619 0.117941 0.211375 0.590318 0.177650 0.318376 0.412180 0.326518 -0.234621 -0.111873
maybe 0.174514 0.483711 0.128394 -0.109493 0.775546 -0.373291 0.011267 0.307418 0.704554 0.831901 0.006634 -0.360343 0.480933 -0.023033 0.119308 0.907221 0.184964 0.224240 0.016100 0.390691 -0.693104 0.392258 -0.042211 0.328158 -0.162163 0.591044 0.269762 0.782319 -0.072136 -0.362796 -0.012093 0.050520 -0.263544 -0.062585 -0.396587 -0.072102 -0.185705 0.045896 0.415667 0.264315 0.109231 -0.224856 -0.020273 0.127352 0.148814 -0.208544 -0.414104 0.381430 0.039968 0.465102 0.506816 0.058594 0.021421 0.116659 0.517264 -0.347841 0.270973 -0.340892 0.175124 0.138503 0.207640 0.368281 0.027599 0.686249 0.215221 0.910504 0.752552 0.046760 0.280949 0.336686 0.085143 -0.110115 0.319756 -0.290661 0.180531 -0.118429 0.011898 0.336024 -0.217782 -0.423358 0.514907 -0.050957 -0.439167 -0.202539 -0.462983 -0.429149 0.792947 -0.347132 -0.218196 -0.517938 -0.146346 0.479563 -0.267219 0.225349 0.151977 0.402263 -0.066453 0.545541 0.024743 0.153405
uncertainty -0.000538 -0.026831 -0.136801 -0.066524 0.150374 0.107637 0.246543 0.834480 0.792857 -0.558808 -0.368982 0.130081 -0.367449 0.133527 0.222058 -0.008953 0.195413 0.450534 -0.336317 0.056908 0.153087 0.102127 -0.219239 0.508551 0.162369 0.632824 0.104255 0.482591 0.433520 -0.108052 -0.838169 0.209556 0.406581 -0.162259 0.238039 0.078521 -0.298735 0.058164 -0.120431 -0.241656 -0.319558 0.491549 0.636558 0.740485 -1.072285 0.436107 -0.204548 0.059467 -0.300704 -0.102103 0.244905 -0.142412 0.557780 -0.299042 0.220694 0.391159 -0.373631 -0.489740 -0.251853 -0.810973 0.694889 0.139201 0.386859 0.550123 -0.648994 -0.070701 -0.278057 -0.045539 0.241775 -0.441441 1.296303 0.064227 0.134797 -0.337203 -0.353001 -0.791402 0.444259 0.412977 -0.140336 -0.380251 0.576363 0.083015 -0.860685 0.132746 -0.252237 0.329511 -0.160032 0.294813 -0.148301 -0.136364 0.133514 0.172791 0.973350 0.302981 -0.016995 -0.238780 -0.486085 -0.639162 0.215541 -0.051507
dependent -0.584100 -0.564391 0.349072 -0.196764 -0.330813 -0.331090 0.148608 -0.670131 -0.172997 0.394689 0.251048 -1.439630 -0.243624 -0.751605 0.308605 0.597267 0.515329 0.654194 0.079531 0.781236 0.762941 -0.792689 -0.461992 -0.040928 -0.508338 0.593080 0.325550 0.795526 -0.324278 -0.112658 -0.014814 -0.435520 -0.776183 0.786687 0.109805 0.037672 -0.327172 0.235890 -0.363395 -0.346703 -0.505327 -0.632223 1.391819 0.652685 -0.436307 -0.723379 0.097770 -0.282199 0.268694 -0.559856 0.180667 0.404145 -0.498118 0.515195 -0.450073 -0.221088 -0.054203 -0.282884 0.002899 -0.557544 0.179269 -0.013531 0.171231 -0.141605 0.002060 0.202123 -0.577726 0.834080 -0.143778 0.293879 0.638635 -0.357878 0.265304 0.093570 1.037037 0.653115 -0.146688 -0.849461 0.807526 0.131877 -0.096305 0.587317 -0.137523 0.583137 -0.393010 -0.476397 0.368207 0.308426 -0.161173 0.614807 0.188454 0.043824 0.046676 -0.071054 0.281158 -0.177558 -0.086862 0.136818 -0.425326 -0.193199
apparent 0.167050 -0.309091 0.130390 0.127882 0.239685 -0.954708 0.085884 -0.335633 -0.030507 0.845142 0.386214 -0.328923 -0.477069 -0.227262 0.346047 0.392968 -0.247836 -0.110262 -0.790583 -0.783314 0.424017 -0.375442 -0.476638 -0.004901 0.277788 0.002353 0.238391 0.051124 0.106467 -0.114628 0.468102 0.065690 0.010383 0.443595 0.065595 -0.899630 0.672096 0.096172 0.177048 -0.176320 0.103214 0.571291 0.042172 -0.518125 -0.428647 -0.524763 -0.247157 0.219288 0.202249 0.151961 -0.056690 0.344027 -0.465877 -0.188532 -0.338572 0.283142 -0.042683 0.176463 -0.373752 0.220736 0.214412 0.539251 -0.515930 -0.202359 -0.457716 -0.095677 0.004238 -0.325742 0.219501 -1.094632 -0.376656 0.097986 0.048036 0.945472 0.002831 -0.015465 -0.052543 0.183087 0.122168 0.321917 0.360444 0.452077 0.965581 0.328522 0.251457 0.394925 -0.777079 0.490151 0.032255 0.025374 0.156825 -0.510567 -0.478263 -0.167392 -0.109429 -0.510592 0.040699 -0.014210 -0.046146 0.251540
dependence -1.041992 0.194143 0.008226 -0.128637 -0.532103 0.459925 0.156818 -0.319932 -0.114360 0.210990 0.068659 -0.618469 -0.792033 -0.925626 0.000203 0.795397 0.692756 0.617791 -1.220533 -0.046661 0.347207 -0.339326 0.284936 0.472823 -0.601465 0.527623 0.409439 -0.133697 -0.477956 0.011304 -0.367389 0.082648 -1.064572 -0.071070 0.018565 0.282560 -0.842511 0.889594 0.275114 -0.491011 -0.422708 -0.614774 1.251405 0.054025 0.419375 -0.080004 0.857413 0.003411 0.865431 -0.534559 0.210867 0.000179 0.498700 0.491501 -0.619181 -0.008668 0.170940 -0.326363 0.187311 -0.199843 0.736277 0.995771 0.271350 -0.170261 -0.005811 0.188197 -0.763408 0.288398 0.145411 0.217634 1.366218 0.501308 0.158037 -0.147030 0.232449 0.244213 -0.012155 -0.150983 -0.380639 0.085845 -0.530604 -0.092806 0.686956 0.468154 -0.090097 0.091821 0.054889 0.540352 0.770210 -0.602383 0.624627 0.417113 -0.031407 -0.035259 0.635890 0.053327 0.383943 0.628358 0.237403 -0.198455
possibly 0.276632 0.319965 -0.001256 -0.108554 -0.048867 -0.156729 -0.233866 0.212393 0.217062 0.623115 -0.401922 0.110124 0.272679 0.121443 0.412428 0.150513 0.444686 0.221842 -0.181740 0.434359 0.293585 -0.065827 -0.538651 0.060822 0.061644 0.666367 0.025446 0.226221 -0.780282 0.109655 -0.059025 -0.251950 0.472093 -0.294854 -0.263301 -0.241049 -0.001150 -0.136396 0.145269 -0.550947 0.220664 -0.154471 0.321842 -0.085900 -0.200422 -0.152173 0.113886 0.030412 0.096277 0.416554 -0.174846 -0.126799 -0.223231 0.080514 -0.085052 -0.091705 0.230654 0.407026 -0.015125 0.394378 0.115024 0.035451 -0.070743 0.083118 0.068815 0.178921 0.193214 0.382484 0.347432 -0.054162 0.106535 -0.055633 -0.142255 -0.261857 0.585472 0.219242 -0.217564 -0.239212 0.014683 -0.297463 0.287270 0.094093 0.563399 -0.088726 0.138804 -0.209226 -0.379301 -0.275709 -0.611521 0.047552 -0.270309 0.191187 0.116009 0.255952 -0.238026 -0.066140 0.559418 0.199495 0.106834 0.086688
roughly -0.155524 0.602111 0.249908 -0.303949 0.037014 0.526071 -0.045970 -0.318291 0.239513 -0.060930 0.311046 -0.272519 0.277518 -0.448797 0.050406 0.532439 -0.478432 -0.419253 0.462399 0.432786 0.484093 0.178622 -0.947335 -0.490770 0.062288 0.158126 -0.794708 -0.047516 -0.353041 -0.319043 -0.659539 0.522675 -0.305046 -0.501479 -0.217738 1.104442 -0.876259 0.168015 -0.033333 -0.173844 -0.482044 -0.348406 0.176891 -0.286495 -0.194275 0.290012 0.261612 0.314828 -0.126443 0.288510 0.327999 0.923012 -0.164092 0.594267 -0.138043 -0.391226 -0.294284 -0.678705 0.107377 -0.191692 0.067311 -0.125464 0.286147 0.290683 0.425723 0.112898 -0.145664 0.063092 0.044260 0.481903 0.096914 0.304545 0.219346 0.170519 0.113729 -0.069640 -0.419417 -0.225608 -0.093751 0.712745 -0.165564 -0.225788 -0.424824 0.679023 0.586382 0.270776 -0.265755 -0.633388 0.344389 0.110937 0.110541 0.093614 -0.252808 -0.076136 -0.194681 0.658308 -0.336155 -0.095747 -0.342556 -0.406417
suggesting 0.045731 0.101220 -0.253975 0.293592 -0.326428 -0.341713 0.002736 -0.089480 -0.085465 0.009374 0.204370 -0.350021 0.148117 0.063656 0.360208 -0.324669 -0.194585 -0.153292 -0.223729 -0.009662 0.107031 0.269767 -0.027776 0.274127 0.067373 0.406183 0.075701 0.057880 -0.366341 0.168708 0.055208 -0.253671 -0.494344 -0.145361 -0.273739 -0.264141 0.101468 0.176178 0.348805 -0.647646 -0.567654 0.058709 0.078534 0.052741 0.513996 0.656082 0.006176 0.442712 -0.091767 0.461735 -0.041568 -0.441159 -0.234047 0.123731 -0.447762 -0.138969 0.281274 0.548102 0.186078 -0.072836 0.180919 -0.327740 0.373391 0.092205 -0.271813 -0.302314 -0.112181 -0.066832 0.003840 -0.034149 -0.084961 0.525537 -0.132934 -0.571953 -0.221463 -0.063488 -0.025027 0.176298 -0.083114 -0.040705 -0.045149 -0.702276 0.151669 -0.212393 0.155097 -0.211686 -0.639981 0.181445 -0.497703 0.302124 0.168580 -0.068629 0.313644 -0.163385 -0.005096 -0.337261 -0.232887 0.334115 -0.428455 -0.384584
predicted 0.154161 0.336801 0.041356 -0.043585 -0.192849 -0.249259 -0.180534 -0.052407 0.205748 -0.144893 0.295053 -0.082755 0.147673 -0.030205 0.289715 0.341433 -0.602857 -0.125859 -0.283449 0.050403 -0.400712 -0.223170 -0.074391 -0.081277 0.526980 -0.167811 0.256372 -0.173306 0.160176 -0.042553 -0.046080 -0.009736 -0.124257 0.779949 -0.959491 -0.151230 0.088048 -0.061039 0.313049 -0.474030 -0.253834 -0.645482 0.328208 0.311395 0.017056 1.119229 0.132385 -0.379343 -0.102417 0.133432 -0.316101 0.209778 -0.413364 -0.004956 0.164742 -0.685868 -0.442532 -0.057713 0.004760 -0.660394 0.322705 -0.700104 0.514307 0.033567 -0.695625 0.274912 -0.978296 0.073030 0.311179 -0.500562 0.257759 -0.406601 -0.071511 0.050764 0.104515 0.001615 0.137071 0.479247 -0.035268 -0.278583 0.283895 -0.793550 -0.419662 0.358171 -0.183882 -0.678054 -0.165083 0.369272 -0.537731 0.251404 -0.039844 0.174242 -0.180585 0.305132 -0.181940 -0.258796 -0.617437 0.187210 -0.347736 -0.237768
suggests 0.121631 0.158630 -0.104882 -0.411966 -0.296069 -0.423433 0.322615 0.096808 0.187619 -0.060031 0.443798 -0.169713 -0.318202 0.117843 0.123582 -0.356489 0.074858 0.219040 0.329522 -0.282707 0.099213 -0.253270 -0.446206 0.828401 0.121404 0.816000 0.375100 0.165885 -0.102474 0.019384 0.415609 -0.407743 0.143987 0.100820 -0.157014 -0.554078 0.252062 0.026258 0.566279 -0.094705 -0.439619 -0.265537 0.440748 0.430242 0.036944 0.301319 1.002299 0.077754 -0.901368 0.380339 -0.163646 -0.215645 -0.334738 0.026184 -0.522554 -0.652860 -0.596912 0.177026 -0.068485 0.370804 -0.024365 0.164212 0.263582 0.105267 -0.368407 -0.270565 -0.441546 0.288918 0.427449 0.034902 -0.197112 0.297781 -0.458486 0.039744 -0.172117 -0.189762 0.176078 0.346749 0.434739 -0.517016 -0.440455 -0.106126 -0.024914 0.053920 0.147574 0.101698 -0.573717 -0.315555 -0.640594 0.266734 -0.163985 0.181043 -0.209393 0.076251 -0.346492 -0.011392 -0.131795 0.062353 -0.330685 0.321394
apparently -0.143941 0.032878 -0.590358 -0.099565 -0.452491 -0.189255 0.361891 0.020630 0.282390 0.314643 0.606090 -0.194586 0.475185 -0.040959 0.142923 0.628313 0.137365 -0.387403 -0.264990 -0.203253 0.260283 0.118045 0.265699 0.257496 0.286344 0.191708 0.308722 0.143910 0.125649 0.205559 0.256426 0.247800 -0.268966 0.066150 -0.181011 -0.089577 -0.535715 0.005223 -0.324756 0.027286 -0.388434 0.075304 0.274372 -0.202974 0.021153 -0.201365 -0.365001 -0.124180 0.005878 0.693949 0.360528 0.040772 0.175959 -0.277379 -0.147952 -0.319400 0.039595 0.380251 -0.344581 0.159106 -0.051817 0.042679 -0.078985 -0.021063 0.104012 -0.011996 0.148787 -0.254787 0.131528 0.264677 -0.371161 -0.137491 -0.106500 0.138772 0.388908 0.212396 0.390477 -0.044076 -0.133755 0.403780 0.013750 0.147386 -0.374997 -0.190343 -0.054848 -0.177950 -0.446126 -0.006003 0.318096 0.555625 0.178556 -0.307468 0.376915 -0.202370 -0.313120 0.131534 0.427428 0.222862 0.766819 0.038562
depend 0.110307 -0.201673 0.136134 -0.468089 -0.165685 -0.194445 -0.376082 -0.246822 0.117136 -0.408820 0.359493 0.062612 -0.190382 -0.324842 0.010166 0.613379 -0.747200 0.770488 -0.026198 0.284604 0.311565 0.558882 0.148081 0.367933 0.098124 0.166807 0.001649 0.419565 -0.030553 -0.257282 -0.041289 0.047022 0.079425 -0.010755 -0.245332 0.180759 -0.162419 -0.045451 -0.158320 -0.396673 -0.285465 -0.118712 0.747069 -0.136494 -0.912821 -0.699095 0.068018 0.244541 0.286604 -0.136183 0.359976 -0.321964 -0.466610 -0.564983 -0.217759 -0.471313 -0.178941 0.036674 0.177410 -1.164041 0.040881 0.301573 -0.286453 0.249687 -0.049489 0.208846 -0.129751 1.425859 -0.144369 0.479847 0.075467 -0.413597 0.042186 -0.461350 0.413946 -0.013876 0.294496 0.410955 0.260890 0.413787 0.350826 0.591572 0.402452 -0.043565 -0.159869 0.185263 -0.416110 0.154270 0.288590 -0.171925 0.296659 0.368736 0.677541 -0.072320 -0.469087 0.365977 -0.180883 -0.001322 -0.563022 -0.487423
volatility 0.001990 0.199177 -0.633812 0.120315 0.080471 0.359677 0.139379 0.431807 0.644141 0.033396 -0.955838 -0.570339 0.397764 -0.046796 0.066589 -0.278771 -0.017466 0.753486 0.361001 -0.099262 0.872616 0.079589 -0.420648 0.284020 0.136024 -0.145186 -0.174409 0.514400 0.030660 0.335855 -0.815278 0.488971 -0.246705 -0.389692 0.567890 -0.356336 -0.837491 -0.347745 -0.305811 -0.787660 -0.424103 0.373509 0.205501 1.062720 -0.433814 0.523058 0.381586 -0.083425 -0.477246 -0.249706 0.651739 -0.551571 0.314522 -0.287573 0.581051 0.137026 -0.529778 0.027798 0.640878 -0.160176 0.638574 -0.588123 0.424228 0.336619 -0.508767 -0.029881 -0.292839 -0.186388 -0.244991 -0.211690 0.662300 -0.618200 -0.526575 -0.124178 -0.308987 -0.739243 0.660109 0.649316 -0.493273 -0.203429 0.279248 -0.604138 -0.402344 0.495187 -0.698770 0.480233 0.374205 0.014662 0.162692 -0.171632 0.041219 0.258088 0.973602 0.024569 -0.265484 -0.147178 0.118048 -0.863640 0.613032 0.010096
unusual 0.257573 0.174834 -0.337033 0.269219 -0.538194 0.245219 0.123267 0.760229 -0.295104 0.016986 0.527454 -0.053419 -0.128803 0.380619 0.061545 -0.372949 0.829252 0.265242 0.788670 -0.260509 0.333588 1.104436 -0.411196 0.355056 -0.270513 0.080836 0.759990 0.146511 -0.539340 0.123248 -0.255926 0.241102 -0.731453 0.252164 -0.206354 -0.077214 -0.979347 0.213000 -0.379400 -0.418829 -0.486556 0.948122 -0.333339 0.056645 -0.090792 0.386824 -0.073943 0.072846 -0.456699 -0.003705 0.739551 0.383572 -0.186249 -0.146522 0.295005 0.206591 0.209590 -0.528375 0.445157 0.133223 0.318356 -0.917813 0.389511 -0.089715 -0.662091 -0.189440 -0.445590 0.250103 0.517585 -0.234869 0.095858 0.446479 -1.078400 0.194509 0.558676 -1.043560 0.753561 0.574512 0.422623 0.118111 -0.278439 0.325922 -0.185305 -0.015398 -0.265754 -0.109039 -0.852506 0.064976 0.163946 0.213237 1.006141 -0.172122 0.725865 -1.256949 -0.457638 -0.120265 0.163048 -0.431399 -0.412574 0.410511
depends -0.184667 -0.086641 0.625255 -0.769167 -0.142070 0.409964 0.008038 0.017370 -0.006529 0.121682 0.524885 0.333144 -0.188107 -0.248067 -0.152429 0.639924 -0.022396 0.752489 0.456600 0.193071 -0.155461 -0.105493 -0.165650 -0.200004 -0.196043 0.889095 0.928317 0.188021 -0.279485 -0.370664 -0.445245 0.417388 0.257973 0.088583 -0.146633 0.095692 -0.161995 0.581686 -0.263196 -0.304625 -0.129291 -0.081616 0.761577 -0.076899 -0.664570 -0.984805 0.316946 0.354259 -0.001934 -0.432078 0.065688 0.073398 -0.345345 -0.137502 -0.301081 -0.215639 -0.092736 -0.330158 0.085951 -0.242231 -0.178147 0.540763 -0.031706 0.368232 0.279101 0.044017 -0.046880 1.647430 0.371787 0.358309 0.538310 -0.023379 0.113336 -0.172643 0.735015 0.278323 0.282046 0.382735 0.172491 0.305374 -0.262039 0.214517 0.519109 0.219867 0.034170 0.645413 -0.381233 0.094841 -0.697330 -0.014475 -0.005292 0.095259 0.549599 -0.151383 -0.285466 0.460059 0.113212 0.424255 -0.553957 -0.447865
suddenly -0.102220 -0.443771 0.005142 -0.014492 -0.039847 -0.307145 0.601378 0.123060 0.517532 0.402962 -0.083859 -0.238722 0.193671 0.139580 0.361405 0.328793 0.326928 0.014447 -0.033479 0.176334 -0.054154 0.231912 0.398118 -0.153498 0.034418 0.774383 0.033398 0.497711 0.448318 0.193345 0.251770 -0.250168 -0.584971 0.215285 -0.113627 -0.118161 -0.342920 0.343565 0.182167 0.292256 0.093030 -0.260764 -0.082316 0.629797 -0.352301 -0.506051 -0.066270 0.101992 -0.063449 0.172868 -0.329947 -0.272773 -0.046014 0.414836 0.464989 0.345913 -0.300229 -0.203041 0.032540 0.044284 -0.175595 -0.255634 0.166874 -0.130555 -0.270380 0.667724 0.398598 -0.264741 0.454604 0.235897 0.243558 -0.254842 0.588120 0.230508 0.297510 0.210197 -0.049735 -0.011070 -0.168265 0.381857 0.433117 0.214085 0.295011 0.298268 -0.063250 -0.738329 -0.013098 0.197958 -0.003635 -0.306896 0.039905 0.052327 0.180667 0.084025 -0.023574 -0.163801 -0.093613 0.297664 0.297424 -0.225008
variant 0.688756 -0.247565 0.784720 0.022312 -0.233175 0.296467 0.128269 -0.663488 -0.248700 -0.096120 0.031913 -0.726742 -0.729667 0.269953 0.707493 0.443260 0.348626 -0.627375 -0.397211 -0.781546 -0.470800 0.314075 -0.847909 0.046487 0.750500 -0.006520 0.170493 0.514126 0.818994 0.535991 -0.761457 -1.027946 -0.263123 0.248057 -0.088396 0.511837 0.513613 0.701268 -0.279788 0.222237 -0.085511 0.115724 0.537196 -0.412273 -0.457196 0.382846 0.323928 1.555652 0.169074 1.087058 -0.428116 0.576000 -0.383697 0.428655 0.440061 0.107639 -0.889833 0.236210 -0.971067 0.127049 0.061110 -0.625972 0.100954 0.044074 -0.349761 -0.399397 0.279844 -0.488555 0.035485 -0.781446 -0.921533 -0.779561 -0.744544 0.535062 -0.336392 -0.451413 0.169031 0.063590 0.377230 -0.268816 0.163624 -0.429843 0.573816 0.604845 -0.453800 0.332207 -0.196396 0.703236 -0.156503 0.503937 -0.014337 -0.205419 0.107362 0.685353 -0.874886 0.250908 0.220351 -0.186832 -0.789379 0.220760
dependency -0.575476 0.463720 -0.142196 -0.374152 -0.417606 0.648301 0.199315 -0.902435 -0.335814 0.360121 0.263562 -0.758277 -0.253038 -0.712837 0.235065 0.894986 0.477432 0.511330 -0.812633 0.223636 -0.127360 -0.627003 -0.441565 0.477281 -1.017078 0.960629 0.642841 -0.210867 -0.293041 0.015089 0.124528 0.305983 -0.771027 0.435991 -0.338325 -0.029418 -0.841858 0.078063 -0.179114 -0.741436 -0.345716 -1.000733 0.684761 -0.199893 -0.008118 0.692972 0.645438 0.444700 0.351302 -1.024869 -0.434040 0.263111 0.328805 0.166432 -0.459845 -0.210642 -0.142483 -0.244277 -0.101342 0.377153 0.501429 0.724063 0.100401 -0.167047 -0.292857 -0.180340 -0.686262 0.078610 0.095692 0.092338 0.456802 0.319358 0.462178 0.347219 0.612814 0.023611 -0.602680 -0.266555 0.135893 -0.018781 -0.202953 -0.019371 0.218185 0.447127 -0.204488 -0.484609 0.291234 0.586525 0.469928 -0.171128 0.761093 0.605581 -0.470185 -0.075360 0.809178 0.263667 0.006985 0.460816 -0.049269 -0.189624
cautious -0.361664 0.438273 -0.188068 0.149861 -0.494694 -0.628208 -0.163777 0.029763 -0.271835 0.492948 0.337062 -1.094818 -0.066806 0.680304 0.801737 -0.050363 0.413109 0.697380 0.063347 -0.205063 -1.079509 -0.259951 0.565089 0.117003 0.167619 0.781791 0.120887 0.468034 -0.103033 0.403162 0.197869 0.100758 -0.545183 0.095389 0.758818 -0.240609 0.291348 0.228341 0.275441 -0.465618 -0.669013 -0.208038 0.159390 0.824062 0.318263 -0.143532 -0.865922 -0.784808 0.063116 -0.074191 0.613383 -0.456381 0.131019 0.065683 0.181247 0.692266 -0.382717 0.343466 -0.289031 0.043754 0.281565 0.215063 0.036723 -0.498062 -0.372309 -0.355162 0.132836 -0.165922 -0.174593 0.062654 -0.180656 0.547378 -0.332808 -0.070628 0.215209 -0.134747 0.597637 -0.030983 0.824765 -0.445427 0.031260 -0.596934 -0.362413 0.275857 -0.254246 -0.261216 -0.150107 0.419655 0.337334 0.112783 -0.457727 -0.097391 0.053472 -0.141331 -0.441614 0.020500 0.201007 -0.128886 -0.672758 -0.116946
unspecified 0.790283 1.243573 -0.089128 -0.493439 0.339222 0.211794 -0.381602 -0.343001 0.209246 0.831615 0.921157 0.094293 0.677380 -0.059019 -0.276833 -0.892002 -0.304668 -0.530421 0.023016 -0.282766 -0.141500 0.481562 0.651547 0.965147 0.080202 0.178536 0.317638 -0.643462 0.264712 -0.202349 -0.604514 0.011081 -0.805368 -0.759661 -0.020535 0.767143 -0.142015 0.649714 -1.058310 -0.964791 0.328313 -0.321774 -0.106055 -0.543056 -0.807414 0.694910 0.846364 0.165646 -0.744401 1.265428 -0.806574 -0.040034 0.316696 -0.135541 -0.451997 -0.048985 2.058468 0.145918 -0.185750 0.548959 0.639390 -1.119987 0.479292 -0.259319 0.260263 -0.568612 0.573669 -0.030353 -0.339745 -0.665405 0.178172 0.392484 0.260232 -1.054787 0.903213 -0.275164 0.132521 -0.544158 -0.339992 -0.495742 -0.710635 -0.925448 0.843919 0.101223 0.109216 -0.730112 -0.126215 0.246143 0.309802 -0.045532 -0.805804 -0.024363 -0.489042 -0.808016 -0.148238 -0.668136 1.232042 -0.083041 -0.129494 0.426069
volatile -0.139755 0.094772 -0.114762 0.414556 -0.252844 0.539399 0.687764 0.099325 0.323462 0.837988 -0.185187 -1.118494 -0.350813 0.168240 0.222745 0.289079 0.153050 0.115964 -0.214022 0.025462 0.103433 -0.716690 -0.497095 0.457395 0.206571 0.516188 -0.293011 0.412839 -0.374839 0.201685 -0.550230 -0.197064 -0.266644 0.358291 0.115669 -0.471058 0.210887 -0.499379 -0.235967 -1.009898 -0.160067 0.090823 0.180187 1.120163 -0.533840 -0.848029 0.475095 0.029447 -0.024078 -0.275705 0.791528 -0.058731 0.301853 0.789674 -0.263004 0.145101 -0.616234 -0.214609 0.029363 0.431724 -0.381563 -0.205145 -0.083973 0.127667 0.359161 -0.115552 -0.990459 -0.178755 -0.111191 0.109506 0.412637 -1.128493 -0.204655 -0.247865 0.051873 -0.494564 0.788279 0.325242 0.532639 0.014218 0.285518 -0.361829 -0.033805 0.154744 -0.274411 0.267568 0.063165 0.414679 0.681758 -0.129049 0.100519 -0.609928 0.781442 0.041886 -0.414652 0.236957 0.084061 0.134335 0.409953 -0.713032
somewhere -0.120652 0.347052 -0.614137 -0.532821 -0.330960 0.141506 -0.441438 0.627402 0.187008 0.238292 0.105896 0.126391 0.614159 -0.212078 0.137489 0.738981 0.096246 -0.008899 0.342021 0.059564 -0.586913 0.864434 -0.327143 -0.233425 -0.121220 0.207024 0.193863 0.961173 0.065481 0.399609 0.204359 -0.029580 0.458892 -0.184283 -0.486093 0.799312 -0.168751 -0.077609 0.463400 0.587472 -0.124498 -0.081510 -0.055152 0.233078 -0.460850 -0.278925 0.127294 0.468122 -0.196863 -0.069848 0.624530 -0.889499 -0.364804 0.203382 0.114671 -0.352656 0.055447 0.343599 0.042016 -0.218220 0.688952 -0.215013 0.463464 0.232185 -0.135298 1.059332 0.251362 0.522346 0.353707 0.850443 -0.094317 0.129620 0.289968 0.033399 0.493815 -0.078862 -0.168300 0.170249 -0.733862 0.384239 0.145669 -0.520374 0.017461 -0.283053 0.191147 -0.384969 -0.235977 0.208977 0.311994 -0.653422 0.204149 0.758660 0.076778 -0.113347 -0.301021 0.012864 0.424484 0.427791 0.459773 0.345580
speculation 0.757439 -0.120758 -0.248959 0.383696 0.296705 -0.007343 0.286661 0.668720 0.133581 -0.045970 -0.101729 0.556351 0.284695 0.151913 -0.180343 -0.240513 0.180666 0.445142 -1.032857 -0.101888 0.489995 0.678268 -0.008127 -0.004770 0.091556 0.490294 1.051731 0.273303 -0.301789 0.050123 -0.179316 -0.228600 -0.200939 -0.039018 0.253919 -0.588134 0.186228 0.615243 0.350052 -0.936846 0.356842 -0.100743 -0.501305 -0.213180 0.069534 0.405428 -0.178813 -0.013473 0.118614 0.684451 0.212441 -0.401401 0.540380 -0.437314 0.173308 0.379009 -0.193290 0.123634 0.099526 0.100570 -0.149606 0.122162 0.692289 0.447056 -0.401237 0.192849 0.056564 -0.026161 -0.004161 -0.818665 0.009702 -0.144508 -0.301069 -0.135453 -0.663276 0.101487 0.347317 0.682338 -0.182257 -0.325907 -0.126005 0.066740 0.130877 -0.749842 -0.442770 -0.175590 -0.488109 0.632573 -0.691685 0.177754 0.302084 -0.117586 0.261117 -0.307030 0.138533 -0.103299 -0.023001 0.213351 -0.147090 0.000098
uncertain 0.303738 -0.028557 -0.035484 -0.127743 -0.063294 0.481406 -0.118531 0.662919 -0.459134 -0.001354 0.380432 -0.704032 0.699837 -0.356683 0.507772 0.546855 0.044076 0.634401 0.051650 0.722288 -0.289213 -0.199839 0.325389 0.258370 -0.125330 0.383821 -0.105814 0.372473 0.461998 0.242339 -0.756933 0.940083 0.328323 0.037303 0.001080 -0.266442 0.016871 0.262886 -0.149757 -0.272813 -0.301512 0.411075 0.264234 0.970251 -0.581282 -0.279183 -0.144819 -0.395442 0.007962 0.412994 -0.183783 -0.702921 -0.148255 0.676994 -0.425909 -0.263496 -0.478304 -0.576047 -0.414656 -0.685997 -0.414595 0.310845 0.406394 0.790029 -0.170700 -0.270903 0.202464 0.573647 0.692417 0.312590 0.774891 -0.003572 0.327619 -0.211712 0.086840 -0.399471 0.301179 -0.019119 -0.035382 -0.079825 0.059672 -0.379191 -0.033970 0.125962 0.230308 -0.070994 -0.068273 0.326469 -0.441597 -1.182181 -0.694777 -0.178069 0.195651 1.212366 -0.580643 0.073643 0.159488 -0.301662 -0.859387 -0.345132
preliminary 0.510695 0.684307 -0.388938 -0.135405 -0.137784 0.921735 -1.311460 0.462542 -0.253990 0.211804 0.123234 -0.290474 -0.295665 -0.210353 0.431831 -0.073151 -0.011482 0.050322 -0.009051 -0.045395 -0.726139 0.222331 -0.551420 -0.671133 0.781349 -0.436415 0.158324 -0.151225 0.205932 0.029951 -0.236433 -0.898552 0.269374 0.482676 -0.325506 -0.450727 0.346416 -0.514132 -0.120433 0.345765 -0.253632 -0.129947 0.731675 -0.053744 0.401444 0.787953 0.197009 -0.049824 -0.686965 -0.203733 -0.596833 0.319793 0.226338 0.746479 0.533193 -0.657641 -0.885181 0.153998 0.384004 0.665157 -0.114209 0.887351 -0.031880 -0.366882 -0.412386 -0.558669 0.034213 0.637050 -0.002782 -0.194188 -0.695559 0.636213 -0.229408 0.353933 0.344738 -0.402036 0.324191 -0.089433 0.310562 0.602547 -0.081191 -0.565196 -0.056786 0.019318 0.712142 0.591614 -0.052348 0.531843 -0.031620 0.237384 -0.125642 0.009616 -0.200467 0.436580 0.294370 0.169230 -0.128206 0.412277 -0.025533 0.153232
instability 0.016138 0.337008 -0.565346 -0.445312 0.367339 0.092855 0.308431 -0.015433 0.610809 -0.561045 0.281275 -0.098385 -0.445476 -0.078534 0.338793 0.676937 0.135949 0.155052 -0.097294 -0.320268 0.511752 0.148829 -0.837488 0.348574 -0.034847 0.449621 0.571558 0.131694 0.115852 -0.399437 -0.739019 -0.692879 -0.222302 -0.904034 -0.113530 -0.027485 0.198479 -0.310109 -0.132879 0.493262 0.070823 -0.082315 0.054283 -0.007406 0.063988 0.083055 0.001479 -0.001955 0.374970 0.439011 -0.232605 -0.097882 0.119037 -0.795520 0.334382 -0.084876 -0.408519 0.135541 0.040941 -1.481854 0.120981 -0.131893 0.580590 0.339717 -0.017514 0.369953 -0.662685 -0.256159 -0.399020 -0.601144 0.384064 -0.456821 0.169632 -0.384047 -0.379190 -0.541358 -0.025970 0.514620 -0.580132 -0.398348 -0.193332 0.035929 0.237772 -0.006586 -0.636442 0.222650 -0.443321 0.593471 0.031281 0.065970 -0.096182 0.567785 0.063743 0.154251 -0.208099 -0.245599 -0.237647 -0.807298 0.008091 0.459701
depending 0.208247 0.756917 -0.336147 -0.448352 0.301376 0.446470 -0.667227 0.425731 -0.351590 -0.108021 0.267537 -0.294038 0.271499 0.239256 0.250670 0.385967 -0.436521 0.164959 0.204612 0.203852 -0.012714 -0.061121 -0.109967 0.816362 0.559675 0.142043 -0.453880 -0.053343 0.612936 -0.335331 -0.780868 -0.147632 0.139604 -0.167886 -0.088779 0.216252 0.249677 0.333272 0.166229 -0.222865 -0.533201 0.591262 -0.235158 0.216662 -0.997106 0.180716 -0.044461 0.809506 0.277432 -0.184960 -0.465317 -0.523951 -0.050809 -0.082243 -0.069736 -0.579556 0.224179 0.117692 0.296164 -0.567246 0.161106 -0.081343 0.396974 0.311081 -0.122392 0.142588 -0.122659 0.572794 -0.085276 0.002891 0.110734 -0.077400 0.590363 0.209431 -0.374354 -0.260897 0.119728 0.138431 -0.292520 0.372537 -0.387352 0.020567 -0.206242 -0.121645 0.114781 -0.384002 -0.659667 0.324714 0.512331 -0.376481 0.117287 0.355734 -0.203872 -0.027279 -0.334624 0.471314 0.084754 0.525912 -0.689462 -0.021533
risked 0.405569 -0.422388 -0.505670 -0.192024 0.326718 0.190882 -0.261695 -0.311875 0.348773 0.372918 -0.238014 -0.316400 0.035153 -0.005283 0.412954 -0.153355 0.691553 -0.426147 -0.107630 0.103686 -0.003062 0.984411 -0.507900 0.582758 -0.006279 0.158730 0.715590 0.086363 -0.615883 -0.011894 -1.069500 -0.429451 -0.719045 0.164744 -0.537550 -1.017409 0.000293 0.078719 0.027618 -0.466344 0.678025 -0.868195 -0.210109 -0.151716 0.684031 -0.029652 0.561978 -0.601257 0.824642 -0.515830 0.088839 -0.253448 -0.003209 0.298947 -0.637714 0.211029 -0.220286 0.234803 0.885651 -0.117563 -0.844529 -0.249458 0.065384 0.223442 -0.243845 0.322543 -0.317569 -0.134508 0.023337 -0.099159 0.609743 0.111222 0.822741 0.106565 0.345933 0.234495 -0.369737 0.054470 -0.256661 0.392092 0.564108 0.219276 0.171037 -0.068080 0.187320 -0.165912 -0.215254 0.234162 -0.850577 0.026743 -0.082702 0.096036 0.594913 0.565904 0.244334 -0.195340 -0.196794 -0.933320 -0.100314 -0.250110
unknown -0.572084 -0.204607 -0.245035 0.340266 0.178432 0.459852 0.069952 -0.013075 -0.499344 -0.078409 0.333903 0.533284 0.263109 -0.375363 0.400872 0.399688 -0.029101 0.313351 -0.572948 -0.267906 0.503174 0.120661 -0.858565 -0.324575 0.264550 -0.234436 0.544573 -0.178335 0.432495 0.633747 -0.281224 -0.247156 -0.426569 0.007377 -0.394927 0.441167 -0.394815 0.045438 -0.279023 0.659285 -0.462384 0.331203 0.481902 0.165884 -0.783996 -0.141653 0.113032 -0.252380 -0.306445 0.675145 0.484185 -0.002611 -0.077971 -0.045877 0.385214 0.090626 0.293705 -0.048842 -0.512898 0.223523 0.134123 0.080802 0.190660 0.913919 -0.459463 -0.148626 0.350730 0.324054 0.191594 0.561921 -0.406080 0.544942 1.318096 0.756316 -0.118888 -0.493148 0.385664 -0.232709 0.569563 -0.434568 -0.071216 0.096672 -0.422099 -0.280742 0.607599 -0.075632 -0.334471 0.828075 0.205456 0.381066 0.016308 -0.061539 -0.152197 0.083856 -0.335722 -0.082537 -0.487072 -0.513972 -0.520836 -0.198682
sudden 0.260124 -0.112480 0.315438 -0.359117 -0.045984 0.751802 0.140301 -0.134707 0.728048 0.362221 0.525379 0.253445 -0.063713 0.399780 0.449560 0.300081 0.541005 0.027722 -0.570273 -0.320666 0.055272 0.364974 0.125421 0.212324 0.228199 -0.179340 0.710466 -0.511033 -0.163990 0.332988 -0.289744 -0.073006 -0.249419 0.379906 0.976029 -0.547131 0.035179 -0.078932 -0.577439 -0.024752 0.173903 -0.152443 0.222857 0.023810 -0.562375 -0.080920 0.853109 -0.201615 -0.119807 -0.044330 0.245506 -0.208694 0.035748 0.258824 0.194562 0.010510 -0.148804 0.096890 -0.108653 -0.493471 0.776475 -0.139370 -0.242624 0.188401 0.210056 -0.164719 -0.334714 -0.009704 -0.557807 -0.848827 0.222670 0.034318 0.082478 0.144462 0.406009 -0.095796 0.184471 0.443158 -0.476183 -0.289382 0.552680 0.432164 0.078242 0.449216 -0.121574 0.227485 -0.073419 0.048586 0.189843 -0.120789 -0.025550 0.408697 0.322115 0.003924 0.070928 -0.084304 -0.351814 -0.579281 -0.006312 -0.018632
hidden -0.253261 0.487440 -0.363009 0.476342 -0.324234 0.278996 1.017050 0.074918 0.118059 0.672529 0.350634 0.405059 -0.026999 -0.147030 -0.283641 0.376961 -0.466452 0.205128 0.518282 -0.376459 0.243765 -0.078138 -0.639741 0.456493 -0.457740 0.144014 0.060511 0.029846 -0.000325 0.532130 0.637014 -0.043531 -0.520114 -0.215930 -0.252886 0.190239 -0.682891 0.455436 0.989152 0.263493 0.097629 -0.016334 -0.587971 0.083097 -0.340486 -0.315857 0.575813 0.036735 0.417361 -0.171664 -0.063528 -0.950269 0.217046 0.910040 -0.206196 -0.170379 -0.754401 -0.107829 -0.970392 0.558134 -0.218158 0.251118 0.410653 0.168571 0.655542 -0.697241 -0.231440 -0.098679 -0.140652 0.607662 0.187371 -0.067391 0.199826 0.614593 0.395140 -0.463427 0.266106 0.269891 0.195944 1.003185 -0.292628 0.557191 -0.483950 -0.341653 -0.199407 0.488439 -0.100985 -0.633452 0.726971 0.088973 0.901026 -0.302188 0.000852 0.788905 -0.407193 0.084630 0.274462 0.181488 0.682270 0.008228
approximately -0.196503 -0.129375 1.054501 -0.064571 -0.014536 0.414075 -0.212346 -0.086645 0.232719 0.222501 -0.076119 -0.401282 -0.035519 -0.790944 0.061091 0.172685 -0.685862 0.233599 0.184584 0.022950 -0.136428 0.370322 -0.337499 -0.603497 -0.246476 0.423890 -0.251357 0.350478 0.066242 -0.007557 -0.545089 0.819756 0.280489 0.330040 -0.681101 0.535618 0.164666 0.077504 0.128347 0.300485 -0.292929 0.057228 0.247546 0.349435 0.123200 0.232326 -0.415011 0.265505 -0.125415 -0.207954 -0.476449 0.109133 0.304393 0.874512 -0.249638 -0.299535 0.189942 -0.268228 0.094127 -0.320415 -0.774519 -0.465550 -0.435962 -0.151678 0.439296 -0.071137 0.322837 0.425975 0.361827 0.248416 -0.564909 0.379575 0.395498 0.605937 -0.743727 0.197924 -0.420563 0.012890 -0.926213 0.631414 -0.185834 0.285584 -0.377740 -0.042778 1.224292 -0.520433 0.092798 0.305979 0.040873 0.775964 -0.032563 0.500492 -0.400251 -0.321547 -0.659912 -0.244407 0.404533 -0.502032 -0.011390 -0.310892
appearing 0.058782 0.312051 -0.529567 0.196833 -0.114208 -0.103182 0.141374 0.081030 0.099668 0.337178 -0.689921 -0.033193 0.434068 0.614410 -0.434694 0.300564 -0.143342 0.289038 0.635906 0.031366 -0.229758 0.213349 0.421053 -0.425586 -0.162115 0.106628 0.154777 -0.171912 -0.089132 0.149026 0.567328 -0.660140 -0.049280 0.200545 0.190363 0.057102 -0.085221 -0.297074 0.916386 -0.119436 -0.077601 0.681348 -0.422310 -0.091037 0.763669 0.178405 0.180687 0.711142 -0.091202 -0.122861 0.097896 -0.102209 -0.085022 0.772117 -0.238542 -0.071157 -0.151048 0.511600 0.331557 -0.526428 -0.113895 -0.130164 -0.278000 -0.565405 0.105503 -0.248682 0.012482 -0.106647 0.382242 0.113042 0.122188 0.171724 -0.601423 0.292135 -0.016296 -0.471229 0.346949 0.243632 0.342131 -0.241315 -0.477302 -0.088416 0.110243 -0.053559 0.304663 -0.068505 -0.769973 0.335847 0.172414 -0.143408 0.241846 -0.495293 -0.129596 -0.102490 0.249212 -0.300739 -0.009227 0.332516 0.345843 0.134227
likelihood 0.066335 0.451815 -0.499949 -0.389173 -0.204883 -0.077232 0.176033 -0.176369 0.675139 0.262452 -0.634237 -0.382553 0.594020 -0.157759 -0.152492 -0.326882 0.479548 0.282896 -0.404264 -0.108791 0.171773 0.156512 0.219383 0.183382 -0.058655 0.654565 0.422039 -0.493202 -0.253491 -0.412959 0.191659 -0.023265 -0.386777 0.228666 0.078171 -0.786038 -0.257239 0.146165 -0.111243 -1.340301 -0.312713 0.254900 0.438603 0.399811 0.157729 0.040460 -0.163030 0.249591 0.005453 -0.053364 0.030803 0.171110 -0.047983 -0.219351 -0.185937 -0.218771 -0.269286 0.296702 -0.004882 -0.135880 0.051892 -0.071596 0.039677 0.320928 -0.137134 -0.265495 0.115147 0.575221 -0.021928 -0.687259 0.046773 -0.605149 -0.538030 0.349832 0.372964 -0.033574 -0.094564 0.588495 0.092293 -0.120938 0.394471 0.005306 -0.233223 -0.003600 0.259229 -0.544772 -0.003860 0.123340 -0.160860 0.332320 0.208740 -0.157054 0.515656 0.188258 0.081397 -0.268186 0.017007 -0.205615 -0.477721 -0.067252
anticipated 0.301488 0.284913 -0.149925 -0.016154 -0.414695 -0.072439 0.014584 -0.482193 0.399224 0.124306 -0.091712 0.050450 0.490477 0.210131 0.204013 0.051980 0.260181 0.916929 -0.399165 0.038584 0.412377 0.087898 0.372269 -0.408190 0.335210 0.301663 0.377800 -0.005248 -0.623867 0.374172 -0.451600 -0.110222 -0.304680 -0.214868 -0.222281 0.089149 -0.551904 -0.068915 -0.258399 -0.242083 -0.458637 -0.464067 0.097373 0.696038 -0.125227 0.287256 0.004805 -0.542812 0.426511 0.441744 0.318655 0.556529 0.000384 0.004317 0.571573 -0.344573 -0.031584 -0.216272 0.168654 -0.263654 0.072747 -0.420179 -0.448923 0.428629 -0.077548 -0.359595 -0.150519 -0.181847 -0.246250 -0.848321 -0.521338 -0.188414 -0.267977 -0.102539 -0.583951 -0.049161 0.646573 0.513371 -0.278374 -0.172977 0.170063 -0.374447 0.007409 0.430719 0.175675 -0.604639 -0.654540 0.502580 -0.466798 0.359472 -0.064348 0.031515 -0.450917 0.064267 -0.966827 0.257620 0.127281 0.350125 -0.501253 -0.384940
unpredictable -0.004236 0.398199 0.299021 -0.035343 0.161877 0.407072 0.287047 0.646053 0.424625 0.532352 0.530158 -0.365217 0.255744 0.117834 0.144638 -0.437612 0.215647 0.663124 0.429112 -0.275024 -0.203569 0.555305 0.042358 0.157100 0.083495 0.087363 -0.408579 0.403963 -0.355445 -0.406450 -1.113868 -0.894402 0.108258 -0.447641 0.145283 -0.773191 -0.478320 0.352899 -0.385807 -0.418932 0.265884 0.061845 0.152139 0.724321 0.306120 -0.337528 -0.209460 -0.010524 -0.099557 -0.654631 0.076582 -0.524486 0.107580 0.220021 0.175084 0.207203 0.192316 0.384446 0.453655 -0.532627 -0.201688 -0.161611 0.512721 0.063916 0.181565 -0.547781 -0.382243 -0.161711 -0.074979 -0.620503 0.286906 -0.788513 0.116965 -0.213693 0.935417 -0.874780 0.450729 -0.281152 0.954960 0.237025 0.031724 -0.441055 0.064062 -0.164913 -0.023975 -0.433970 -0.397056 0.232908 -0.755601 -1.154917 -0.624341 -0.500905 0.230361 0.426231 0.197904 0.203071 0.604234 -0.046566 -0.166911 -0.464431
doubts 0.181333 0.114814 0.033708 0.240359 0.511423 -0.680988 0.186027 -0.195432 -0.095174 -0.667614 0.196511 0.320062 0.259622 0.108300 -0.219478 0.073821 0.192573 0.288032 -0.463287 -0.034427 0.624505 0.508244 -0.566715 -0.174621 -0.098883 1.321096 0.437372 -0.268253 -1.038058 -0.352754 -0.384818 -0.165654 -0.247910 0.520999 -0.475680 -0.521243 0.381103 -0.119040 -0.242875 -0.362595 0.498890 -0.100855 -0.033770 0.649269 -0.271170 0.404180 -0.150973 0.274365 0.317681 0.420941 0.186372 0.118563 0.240258 -0.117579 0.196682 0.341061 -0.387927 0.509779 -0.181156 -0.145045 0.118247 0.170483 0.596249 0.066832 0.145987 0.139912 0.717546 0.143327 -0.398636 -0.987799 0.058979 0.560726 0.020544 -0.548722 -0.476390 -0.060198 1.083751 -0.054997 0.128744 0.161421 0.640063 0.498106 0.004976 0.162859 0.558505 -0.053592 0.473390 0.569638 -0.033153 0.334756 -0.050411 0.016260 0.314670 0.303163 0.586158 -0.455206 0.111152 -0.138251 0.006942 0.519827
unexpected 0.124013 0.239113 0.079740 -0.096977 -0.180878 0.173830 -0.077886 -0.137351 0.070926 0.658364 0.557931 0.097361 -0.305377 0.235352 -0.194381 0.316244 -0.201449 0.215210 0.685763 -0.214475 0.000805 0.505212 0.150795 0.283600 0.121058 0.436662 0.136575 -0.495734 0.540461 0.075776 -0.522426 0.579662 0.062843 0.155121 0.203781 -0.520324 0.179932 0.658990 0.114374 -0.134966 -0.406335 0.134671 0.250843 0.191796 0.019512 -0.383014 -0.156275 -0.014948 -0.148595 -0.182977 0.320101 -0.136028 0.220176 -0.184497 -0.531700 0.235625 0.026890 -0.114757 -0.758273 0.208789 0.039384 -0.136001 0.353024 -0.307771 -0.447388 -0.296972 -0.005117 0.751379 0.193033 -0.935859 -0.073156 -0.419312 -0.341139 0.513800 0.002537 -0.330123 0.404266 0.331117 -0.423304 -0.850925 0.408200 0.308984 -0.195447 0.292215 0.455797 -0.128338 -0.678060 -0.386197 0.260903 0.029378 0.418171 0.418608 0.090551 -0.356780 -0.039492 1.048189 -0.212875 -0.472469 0.130485 0.063565
confusion 0.416765 -0.043974 -0.427776 0.064673 0.309394 0.071772 0.568773 0.525688 0.122078 -0.062029 -0.222759 0.564131 0.377791 0.424110 -0.016792 0.107959 -0.221367 0.610283 0.060602 -0.620788 -0.091093 0.099932 -0.515367 0.165122 0.024447 -0.089519 0.883089 0.003991 0.733516 0.225104 -0.191605 0.120751 -0.129418 0.534320 -0.042515 -0.208750 -0.099196 0.554453 0.143929 -0.016394 0.002900 -0.225841 0.050798 0.077054 -0.692595 0.164123 -0.656813 0.126086 -0.474845 0.228341 -0.427315 -0.307747 -0.208466 0.334827 0.218313 0.273501 -0.720743 0.560134 -0.799408 -0.823793 -0.087232 0.272754 0.313167 0.245975 0.004355 -0.048658 -0.359435 -0.358056 -0.576039 -0.279389 0.664192 -0.182636 -0.354567 0.424067 -0.215926 -0.762509 0.429182 -0.049808 -0.649459 -0.625906 0.372734 0.439395 0.181218 0.181426 -0.104914 0.211710 -0.448271 0.157305 0.424507 0.158545 0.174710 0.750249 0.511724 -0.228264 0.738678 0.002209 -0.215684 -0.019659 0.465253 -0.147654
somewhat -0.167801 -0.103579 0.116333 0.012152 0.451179 0.264621 0.306249 -0.237670 0.100244 -0.092791 -0.104825 -0.853463 -0.060355 -0.211015 0.522389 0.133403 -0.112007 0.089456 -0.341085 0.359916 -0.227192 -0.069919 -0.555367 0.534722 -0.145731 0.150942 -0.197579 0.198417 -0.642359 -0.335296 0.119181 -0.528051 -0.016488 0.199393 0.953711 -0.479716 -0.493836 0.574499 0.088233 -0.144389 0.109459 -0.728354 0.600076 0.545946 0.083737 -0.453028 -0.344438 0.081824 0.171576 0.352160 0.422455 0.304787 0.375339 -0.134430 0.031321 0.235382 0.049981 0.163116 -0.077784 -0.221154 -0.588671 0.120784 0.168979 0.246700 0.738592 -0.246502 0.089910 -0.853497 -0.262034 -0.018579 -0.761208 -0.503090 -0.580411 0.412397 -0.106250 -0.112596 0.243446 -0.013790 -0.015136 -0.051733 0.605817 -1.019086 -0.631767 0.303059 0.137575 -1.094628 -0.280047 -0.500584 -0.509701 0.197445 -0.020034 0.001932 0.110648 0.311240 -0.051996 -0.020535 0.195524 0.096083 -0.126336 -0.408259
assume 0.008033 -0.637915 0.341878 -0.326631 0.200449 -0.178115 -0.264786 -0.770651 0.196687 0.265284 0.385990 0.030286 0.185978 0.540799 0.476735 0.052661 0.422285 -0.165149 0.523031 -0.512381 -0.427016 0.787207 -0.391565 0.483300 -0.712242 0.254880 0.474411 0.015823 0.588363 0.285202 -0.271925 -0.102532 -0.263411 0.233187 0.178402 -0.270804 -0.573394 -0.036370 0.211176 -0.415045 0.152140 -0.103889 0.103554 0.178448 -0.405295 0.278132 0.045458 -0.219424 -0.070208 -0.714187 -0.018988 -0.342315 -0.854560 0.450217 -0.099384 -1.078756 -0.462064 0.578040 -0.073405 -0.572519 0.191598 0.457689 0.135353 0.017115 -0.296702 -0.248164 0.007163 -0.123383 -0.208713 0.420775 -0.079125 0.108135 0.017051 -0.014328 0.504825 -0.169632 0.738233 0.534531 0.245012 -0.227541 0.254692 0.019620 -0.190342 -0.324966 0.014219 -0.197876 0.601732 -0.222089 -0.562416 0.148919 -0.286170 -0.104890 0.105360 -0.220834 0.101227 0.175202 -0.083336 0.509939 -0.623001 -0.285408
predict 0.652474 0.285400 0.024088 -0.151584 0.433491 0.386603 -1.071505 -0.611474 -0.340323 0.715194 0.698978 -0.566506 0.108951 0.784872 -0.542980 0.136826 -0.081397 0.077291 -0.485238 0.420346 -0.029062 0.018234 -0.215943 0.074953 0.124588 -0.175633 -0.463871 -0.077990 0.152350 0.002611 0.216530 -0.242300 0.097522 0.356518 -0.494043 -0.699874 0.111680 -0.232027 0.249694 -0.191833 -0.656363 -0.031526 -0.275481 -0.145631 -0.366172 0.682272 0.377854 -0.203448 -0.198558 -0.706713 -0.549605 -0.847086 -0.287499 -0.274953 0.418054 -0.768336 -0.920411 0.306419 0.008143 -0.164818 0.142550 -0.362015 0.047325 0.440096 -0.023946 0.374869 -0.330009 0.185915 0.503179 -0.232379 0.414955 -0.006709 0.165607 0.245694 0.870443 -0.555986 0.360836 0.398051 0.384017 -0.484913 0.281582 0.081713 -0.609530 0.623070 -0.085665 -0.349498 0.121562 0.940225 -0.901219 -0.473010 0.031790 0.143016 -0.143286 0.967568 -0.525158 0.758289 -0.068017 0.155861 -0.272772 0.173306
pending 0.100274 0.419752 -0.648752 -0.166202 -0.108141 0.652756 -1.110643 0.823967 -0.566542 0.344506 -0.104034 0.432558 0.330459 -0.121788 0.178747 -0.102847 0.126474 0.239195 -0.375804 0.339239 -0.201279 -0.092400 -0.374960 -0.337823 0.766301 0.054985 -0.695768 -0.667097 0.147527 0.306302 -0.213254 0.150895 0.491481 0.144430 0.819851 -0.349073 -0.447829 -0.208371 0.965819 -0.184308 -0.264009 0.647494 -0.284246 -0.349001 0.336140 0.049581 -0.314734 0.057192 -0.070238 0.588328 -0.323647 0.265074 -0.087087 0.084105 0.478807 -0.286064 -0.316123 0.349316 0.037503 -0.007509 -0.024560 0.748663 0.741180 -0.175277 -0.015559 0.005043 0.762638 1.236787 -0.027409 0.196106 -0.214586 -0.590910 0.550526 -0.528215 -0.056417 -0.590541 -0.027018 0.472647 0.074926 -0.772438 -0.364825 -0.056094 -0.139153 0.260832 -0.113142 0.157378 0.108090 -0.277044 0.260456 0.050414 -0.406850 -0.362976 -0.410924 -0.301376 0.233031 1.218776 0.511069 -0.387185 -0.099421 -0.011957
revised -0.189951 -0.157941 -0.029760 -0.392824 0.131026 0.469328 -0.100709 -0.340646 0.892813 -0.744199 -0.136060 -0.663014 0.137351 0.931529 0.304111 1.182425 -0.256907 -0.247685 -0.316252 -0.323038 -0.499222 -0.720514 -0.549395 0.095981 0.954642 -0.108494 -0.047409 -0.175028 0.250920 0.062090 -0.059624 -0.037672 0.636999 -0.355094 -0.274259 -0.155323 -0.639234 -0.011219 0.904609 -1.325967 -0.257536 -0.551003 -0.147822 0.140525 -0.013507 0.794594 -0.097816 -0.865504 0.157105 0.270492 -0.720351 0.083000 0.166670 0.650219 0.372918 -0.369544 -0.343249 -0.173525 -0.561601 0.226875 0.141749 0.228115 -0.322439 -0.717531 0.430885 -0.141919 -1.005657 0.353052 -0.899946 -0.241972 -0.155884 0.471669 0.293522 -0.246222 0.171402 0.548309 0.099093 0.558066 -0.172494 0.009933 -0.223263 -0.739133 0.209161 0.064296 0.397722 -1.030626 -0.741088 -0.657867 0.107234 0.224581 0.015950 -0.457057 -0.223967 0.473370 0.223820 0.366603 -0.627043 -0.044862 -0.379567 -0.576355
contingency 0.268170 -0.076480 0.691328 0.261560 -0.701477 0.303720 0.478434 -0.906483 -0.326558 -0.063436 -0.034295 -0.323707 0.398543 -0.488043 -0.020504 -0.220047 0.220569 0.124019 -0.158203 -0.150642 -0.311914 -0.044986 -0.567890 -0.211876 -0.663056 0.905783 0.213671 -0.035961 -0.259448 0.776658 0.033061 0.438603 0.024982 -0.785876 0.024120 -0.548384 -0.413314 0.460960 -0.969073 -0.658282 -0.534927 -0.216209 -0.556539 0.591883 -0.978185 0.316657 0.429348 0.274469 0.801350 0.248682 0.408692 -0.000942 0.771974 0.081494 0.155007 -0.009055 -0.715966 0.075667 -0.666575 0.404824 0.782536 0.085728 -0.087485 -0.080073 0.175820 -0.832738 0.319663 1.146904 -0.441972 0.275232 -0.809982 0.302830 0.080974 -0.621737 -0.230055 -0.905560 0.609978 0.205017 -0.196843 0.437032 -0.719692 -0.176814 0.898355 0.429904 -0.235351 0.671873 0.953364 0.988960 0.453377 -0.807646 -1.207180 0.090245 -0.106069 -0.105924 0.155188 -0.493881 0.599209 -0.338362 -1.081420 0.017075
indefinitely -0.887754 0.359219 0.110386 0.156201 0.587045 0.282911 -0.562944 0.294416 -0.762107 0.086315 0.260010 -0.597745 -0.272190 1.251548 0.391172 0.378371 -0.598118 0.189222 -0.055661 -0.604111 -0.518470 0.481562 0.141273 0.107047 -0.387565 1.169463 0.201487 -0.015456 0.457304 0.043149 0.334834 -0.066383 -0.334382 0.207084 0.424486 -0.394222 -0.729972 -0.320433 -0.020422 0.063191 0.541583 0.164702 -0.261445 -0.359210 -0.352579 1.003768 0.360304 0.179215 -0.088476 0.088208 -0.120961 -0.536208 -0.524667 0.376298 0.042604 -0.185324 -0.448797 0.340159 0.397051 -0.128366 0.621752 -0.396133 0.700162 0.100386 0.187151 -0.143847 -0.160025 0.163252 -0.706117 -0.052425 0.445248 -0.081680 0.916422 -0.164737 -0.019007 -0.094570 -0.067006 0.814349 0.127469 -0.244793 0.216689 0.157170 -0.186918 0.098983 -0.106260 -0.232511 -0.459040 -0.570945 -0.074321 -0.063750 -0.905136 -0.929327 -0.172824 1.089010 -0.146355 0.575677 0.819307 -0.475988 0.346821 -0.031148
risky -0.138223 -0.211471 -0.300986 0.253607 -0.451891 0.225412 0.357298 -0.288777 0.192619 0.519806 0.461560 -0.130975 0.262543 0.030485 0.268030 0.590163 0.447805 -0.017602 -0.503134 -0.654214 0.138735 0.113385 -0.717097 -0.214812 0.073774 0.739315 -0.121771 0.323406 -0.135860 0.212273 -0.376107 -0.318724 -0.437434 0.116015 0.448643 -0.300310 -0.083954 -0.362922 0.418278 -0.093434 0.213997 -0.021715 -0.020877 0.153175 -1.007579 -0.259001 0.225391 -0.363378 0.492461 -0.001074 0.327803 -0.290914 0.194454 0.310983 0.061143 0.086034 -0.769307 -0.087917 0.096517 -0.071947 -0.603976 -0.130832 -0.052199 0.386968 0.606673 -0.022198 -0.357615 0.358996 -0.165769 0.281745 -0.326189 -0.117407 0.005608 0.438134 0.450509 -0.453848 0.368197 -0.193963 -0.651044 0.454118 -0.541414 0.656470 -0.186881 -0.444854 0.163901 -0.042759 0.179457 0.947598 0.191771 0.546670 -0.221663 0.328435 0.044796 -0.083141 -1.178393 0.237547 0.362779 0.256857 0.317055 0.435005
unusually 0.101796 -0.137717 -0.434102 -0.294292 -0.185352 0.690135 0.211895 0.324634 -0.086074 0.136905 0.227964 0.332172 0.089285 0.153196 0.364263 -0.502369 0.036405 -0.145590 0.104833 -0.061429 -0.875636 0.150072 -0.062045 -0.326077 0.596067 0.274200 0.359825 0.237380 -0.040485 -0.032290 -0.406478 -0.349226 -0.076819 0.001577 0.324197 0.644608 -0.049067 0.276464 -0.273663 -0.675581 -0.354399 -0.097180 -0.303043 0.205648 0.330982 -0.213538 0.446925 0.178435 -0.026892 -0.517777 0.959509 0.111729 -0.054390 -0.272976 0.411493 0.896578 -0.091753 -0.136731 0.080269 0.155911 -0.767605 -0.206793 0.149476 0.626653 -1.018943 -1.017641 0.134061 0.095212 0.694751 -0.013599 -0.332409 -0.548626 -0.451921 0.058064 -0.517669 -0.176836 -0.603864 0.171198 0.484767 -0.043933 0.329368 -0.017096 -0.616662 0.755142 0.183077 -0.271999 -1.190277 0.652142 0.232302 -0.276332 -0.003409 -0.137462 0.390940 -0.656494 -0.043535 0.978813 0.530312 -0.483950 -0.473139 -0.103242
assumed 0.310663 -0.004335 -0.410816 0.538704 0.467738 -0.525527 -0.387662 -0.296153 0.097284 0.042874 0.009272 0.223802 0.078580 -0.169399 0.135805 0.504971 -0.319446 0.319041 -0.271966 0.116278 0.405373 -0.185438 -0.051796 0.689087 -0.051854 0.245176 -0.083158 -0.531695 0.340291 -0.267437 -0.447116 -0.190911 -0.607892 -0.226739 -0.095295 0.155389 -0.349823 0.497196 0.197592 0.020435 0.369001 0.010254 0.625850 0.751372 -0.466159 0.180112 -0.124311 -0.060815 0.242956 0.657934 -0.018100 -0.117246 0.292079 -0.742393 -0.303196 -0.538481 0.501822 -0.261540 -0.120084 -0.552519 -0.005940 0.395333 -0.481601 -0.007083 -0.874212 0.113527 0.076013 -0.270606 -0.048450 0.070780 -0.479783 -0.345868 0.136513 0.397322 0.387614 -0.595202 -0.109406 0.308069 0.038093 0.257129 0.207616 0.045023 0.094113 -0.015696 0.743763 -0.646842 0.035066 -0.494791 0.049964 -0.147615 0.251414 -0.384877 -0.061568 0.259197 0.382997 -0.166407 -0.322229 0.201532 -0.254769 -0.098836
contingent -0.005582 0.733911 0.130833 -0.245188 -0.574058 0.185541 0.208662 0.277336 -0.179292 -0.411199 0.315653 -0.172294 -0.148015 -0.391365 0.883790 0.413818 -0.251288 0.545524 0.965916 0.261497 0.173244 -0.165904 -0.294104 0.321351 -0.710654 0.413752 0.641894 -0.374425 -0.885269 0.365413 -0.700313 0.552195 0.000761 -0.238069 -0.256310 -0.286986 -1.419459 -0.285696 -0.233895 -0.561811 0.137459 -0.026218 0.278644 0.459164 -0.074583 0.668875 0.345664 -0.406359 0.859420 0.049151 0.435946 0.477888 0.331118 0.623485 -0.691323 -0.090586 0.328283 -0.618681 0.657798 0.056488 0.129261 0.242517 -0.959377 -1.012826 -0.193616 -0.878416 -0.041538 0.572024 0.147991 0.235874 -0.293995 0.179187 0.285034 0.385946 0.263253 -0.507075 0.081936 -0.988568 -0.188075 0.973530 -0.186957 -0.390784 -0.151186 -0.016245 0.227280 -0.109680 0.386591 0.436544 0.030886 0.212661 -0.144191 -0.068760 -0.506643 -0.141486 0.230681 0.394464 -0.261831 -0.610366 -0.758741 -0.193840
predicting 0.408676 0.540409 -0.398139 0.341254 0.149209 -0.258078 -0.702948 0.119378 0.106059 -0.482656 -0.008638 0.193430 0.145656 0.036438 -0.319877 0.913506 -0.331712 0.650071 -0.127144 0.161774 0.162259 0.397031 -0.083726 -0.760896 -0.191990 0.069114 0.539637 0.042625 -0.322361 -0.848453 0.053719 0.522798 -0.417474 0.221315 -0.281844 0.158500 -0.211660 -0.341993 -0.661660 -0.811340 -0.156156 -0.101725 0.704088 0.087180 -0.267269 0.759469 -0.257734 0.049176 -0.179604 -0.147665 -0.093710 0.333274 -0.003651 0.266907 0.419557 -0.034185 -0.598191 -0.258961 -0.140452 -0.195493 -0.099776 -1.165012 0.349106 -0.182584 -0.270217 0.170776 -0.371455 0.988655 -0.091734 -0.644297 0.120408 -0.388000 -0.194530 0.143764 0.101894 -0.314508 0.259963 0.182673 0.373552 0.401223 0.381130 -0.314286 -0.713925 0.021913 -0.266549 -0.585770 0.069604 0.215670 -0.484857 0.255694 0.385892 -0.022320 -0.114189 0.686615 -0.275533 0.014526 0.326902 0.195467 -0.555966 -0.319281
unexpectedly 0.142072 -0.236024 1.081362 -0.129217 0.659563 -0.130711 -0.652922 -0.509454 -0.533812 0.235521 -0.006010 0.331442 -0.403151 0.632977 -0.288360 0.252713 0.157153 -0.401023 -0.203803 0.847604 -0.221446 0.477111 -0.151215 -0.541045 -0.323861 0.911218 0.497195 -0.294411 -0.131441 -0.408017 -0.183274 0.464194 0.776633 1.108198 0.126921 -0.130782 0.233751 -0.126027 -0.178373 -0.184004 -0.445307 -0.536408 0.372486 0.354016 0.671204 0.197034 -0.356462 -0.152231 -0.542999 0.049777 -0.278870 0.589981 -0.482857 -0.307920 -1.065808 0.634061 0.954086 -0.100851 -0.526980 -0.004471 -0.594796 0.555245 -0.493423 0.021501 -0.600755 0.401702 0.644793 -0.422227 0.549898 0.116425 0.349489 -0.648423 -0.378039 -0.552021 -0.109170 0.304986 0.343433 0.234897 0.140044 0.123393 1.302000 -0.271697 -0.977183 -0.445027 0.096599 -0.438082 -0.345915 0.359163 -0.124171 0.234992 1.070167 -1.111884 -0.793529 -0.087158 -0.164811 -0.015639 0.417629 0.728614 0.945379 -0.180499
predictions 1.148161 0.149436 -0.243104 -0.460363 -0.027966 -0.016456 -0.711217 -0.191019 0.631104 -0.005455 0.718142 -0.770304 0.316288 0.030729 0.347629 -0.212421 0.025159 -0.322804 0.006390 -0.172856 -0.016014 -0.492035 0.048484 0.025489 0.221405 0.606373 -0.043616 -0.446493 0.084072 0.028055 -0.258685 0.299003 -0.392248 0.277152 0.605705 -0.996549 0.335472 0.666003 -0.650833 -0.865948 -1.088782 -0.022833 0.048160 0.229081 0.038260 1.039868 0.650121 -0.516633 -0.039170 -0.222192 -0.712808 0.150791 0.215868 0.169929 -0.265941 -0.168033 0.074917 -0.049912 0.154460 -0.001803 -0.021849 0.011061 0.742469 -0.149839 -0.583452 -0.235530 -0.255813 -0.300350 0.162523 -0.272853 -0.365993 0.020682 -0.739282 -0.203554 0.670475 -0.291921 0.238621 0.351303 -0.385387 0.376148 0.164681 -0.728208 0.163917 0.046846 0.204091 -0.897638 0.445437 0.496618 -0.895144 -0.023159 -0.629139 0.215162 -0.135638 0.244698 -0.023901 -0.299555 -0.265304 0.421693 -0.934372 0.122546
risking 0.608805 -0.775452 -0.389107 -1.279023 -0.157492 0.083355 -0.634438 -0.513737 0.147197 -0.085605 -0.118090 0.289341 0.293282 -0.004782 0.486131 0.421707 -0.198204 0.477748 0.292680 -0.481463 -0.339385 0.491538 -0.206313 -0.014346 0.887809 -0.332320 1.146188 -0.875055 0.004935 -0.609479 -0.924378 -0.432043 -0.142004 -0.293725 0.269733 -0.143536 0.410930 0.242355 0.177301 0.208714 0.434711 0.275881 -0.143988 -0.126850 -0.148668 -0.359808 0.638609 -0.025249 1.267450 0.358251 -0.593502 -0.124386 -0.295183 -0.138061 -0.683105 -0.067365 0.821530 0.008728 -0.100998 -0.392629 -0.219697 0.383164 0.923891 0.233573 0.119285 -0.593009 0.482964 0.433565 0.239097 0.103537 0.569199 0.194434 0.152880 -0.478676 -0.148974 -0.019049 -0.035459 0.062513 -0.433083 0.234696 0.386888 -0.493518 -0.057265 0.268539 -0.158578 0.113965 0.330847 -0.077428 -0.052640 -0.427815 -0.425969 0.218621 1.003925 0.203981 0.856603 -0.101814 -0.579405 -0.767824 0.463575 0.748908
occasionally 0.042589 -0.218031 0.087693 0.175785 0.194367 0.194205 0.360382 -0.148259 -0.292635 0.349790 0.159579 0.174130 0.029829 0.562702 0.109876 -0.227939 0.246538 0.136365 0.167778 0.322816 0.269544 0.120018 -0.140218 0.062710 0.467449 0.073251 -0.075220 -0.156758 0.140479 0.360516 -0.147065 -0.453047 -0.717834 -0.056808 -0.089132 -0.082984 0.404868 -0.024184 -0.061644 -0.193327 0.087457 -0.245178 -0.136236 -0.465079 0.872448 0.235397 0.102255 0.459484 -0.172778 -0.233579 -0.189896 -0.411758 -0.608508 0.400257 -0.060715 0.245828 -0.094239 0.470940 0.419156 -0.374237 -0.655124 0.175682 0.569574 0.310198 -0.027914 0.622074 0.646928 0.250831 0.227164 0.257530 -0.119765 -0.290180 0.424734 -0.384338 -0.068306 -0.183887 0.304160 0.080273 -0.656910 0.275009 -0.587607 -0.546353 -0.430526 -0.170290 0.132913 -0.622012 -0.409176 0.519869 -0.095032 -0.097029 0.127238 0.095002 -0.163802 -0.600866 0.114159 -0.082318 -0.242816 -0.113595 0.238120 -0.070946
unidentified 0.696165 -0.376698 -0.988372 -0.262347 0.240722 0.603197 -0.243911 -0.564441 0.166088 -0.490229 0.389864 -0.207280 0.251531 0.085045 0.462379 -0.306035 0.740946 -0.480970 0.852326 0.900543 -0.575519 -0.165709 -0.342847 -0.012338 0.359248 0.168597 0.467307 -0.146459 0.336282 0.369859 -0.307639 0.532033 0.035876 0.613890 0.209984 -0.585946 -0.640626 0.285434 -0.826749 0.855918 -0.579497 0.176603 0.666404 0.728032 0.603228 0.031468 -0.298482 -0.064881 -0.343387 -0.560516 -0.141111 -0.480933 0.045576 1.068861 -0.329451 0.136621 -0.199479 0.519741 -0.438235 0.101197 0.866937 0.132390 0.161080 0.115985 0.319605 -0.308070 -0.074998 0.466645 -0.321384 0.723193 -0.742152 0.572282 -0.197396 -0.073949 -0.167752 0.630359 0.597986 -0.549055 -0.223034 0.643024 -0.094665 -0.268907 -0.048395 -0.922404 0.162948 0.589973 -0.401726 0.193546 -0.111385 1.246760 0.535120 -0.642376 0.822554 -0.041454 0.465512 -0.016902 0.439140 -0.284608 0.458057 -0.343642
exposures 0.002573 -0.316498 -0.262002 -0.638159 -0.425689 1.445348 -0.330032 -0.299277 0.410469 0.067409 -0.226185 -0.382841 -0.003634 -0.491674 -0.227627 -0.275438 -0.066201 0.130700 0.193769 0.287121 0.262278 0.896960 -0.137852 0.180784 0.278538 0.517382 0.254443 0.396792 -1.100880 -0.566575 -1.185491 -0.061777 0.254424 -0.049272 -0.301690 -0.150573 -0.380813 0.010675 0.025094 -0.917022 -0.924436 0.217292 -0.209546 0.521703 -0.211757 0.246105 -0.496935 0.086207 0.693154 -0.213313 -0.841076 -0.563846 0.252081 0.387419 0.289850 -0.205768 -0.105915 -0.197683 -0.083243 0.337605 0.165644 -0.050772 -0.152239 -1.142109 0.053642 -1.405930 -0.055084 0.489113 0.359599 0.620392 -0.448813 -0.478513 0.368689 0.031779 0.067123 -0.468510 -0.555214 -0.324810 -0.026208 0.121072 -0.161007 -0.400444 -1.736561 0.626084 0.354633 -0.034588 -0.563220 0.601788 -0.055424 0.239643 -0.057383 0.030660 -0.011556 -0.182937 -0.318822 0.695867 0.013145 0.035303 0.874530 0.145990
ambiguity -0.735990 0.278342 -0.450590 0.403818 -1.117749 -0.272699 0.639375 0.278691 0.665071 0.173892 0.314495 -0.478329 0.116105 -0.085124 0.970775 0.572348 0.223014 0.658251 -0.178590 -0.562061 -0.040937 0.115589 -0.293098 0.742875 -1.024286 -0.067637 0.456693 -0.180661 -0.008809 0.238366 -0.393710 1.340384 0.105035 -0.504246 -0.578117 0.524844 0.183076 0.444793 0.487267 -0.473876 -0.242960 -0.126165 -0.848977 0.167428 -0.212112 -0.321899 -0.519012 0.191124 0.276352 0.380912 -1.107029 0.257415 -0.115991 0.012087 0.310070 -0.199703 -0.411325 1.031028 -0.166227 -0.461579 -0.369118 0.010632 0.033826 -0.458691 -0.684021 -0.232308 0.030346 -0.025381 0.426943 0.262163 0.329972 0.037973 -0.060899 0.550861 0.463701 -0.668543 0.974363 -0.106683 0.370941 -0.544812 -0.283895 0.029075 0.144004 0.226917 -0.707796 -0.413166 0.774393 0.889402 -0.130506 0.054907 0.211943 0.303634 -0.767932 0.212691 0.440012 0.341504 0.208601 0.716414 -1.072410 -0.010852
possibilities 0.190714 -0.431733 0.539929 -0.333467 -0.786173 -0.369480 -0.443075 -0.618597 -0.206011 -0.295371 0.609089 -0.742812 0.133825 -0.203548 0.298368 0.559860 0.363232 0.667456 -0.229875 0.176540 -0.194138 0.277862 -0.045649 0.093896 0.421900 0.991615 0.448538 -0.056097 -0.060226 0.574824 -0.264682 -0.127151 0.073166 -1.450533 -0.075631 -0.301740 -0.340418 0.024437 -0.741213 0.202777 -1.811935 0.231239 -0.490359 0.191937 -0.110920 0.393159 -0.370475 0.203077 0.083743 0.079870 -0.338202 -0.446412 -0.253696 -0.250304 0.218847 0.150851 0.013636 -0.040181 -0.692993 0.238602 -0.516763 -0.253212 -0.116805 -0.088615 -0.198566 -0.217570 0.389017 0.812780 -0.434246 0.323884 -0.025516 0.212793 -0.001220 0.202966 -0.328540 0.109544 -0.422330 0.178331 -0.022935 -0.077277 -0.070413 0.234831 -0.480417 0.774756 -0.489503 0.156794 0.023874 0.676676 -0.152902 0.076662 -0.011373 0.137583 0.516686 0.748876 -0.476304 -0.245749 0.432412 0.380709 -0.482207 -0.839768
probability 0.101651 0.287141 0.268831 0.003627 0.531733 0.839466 0.276399 0.327872 0.042393 -0.440824 -0.172160 0.733581 1.251695 0.955658 0.156123 -0.457374 0.124109 0.035173 -0.144023 -0.331661 0.482450 0.793267 -1.213875 -0.190213 -0.480331 0.465646 0.681688 0.110738 -0.003407 -0.013258 -0.533197 0.445283 0.320625 -0.130131 0.338927 -0.111000 0.110069 -0.327387 0.474438 -0.009266 -0.831104 -0.512425 0.192238 0.379399 -0.152066 0.488889 -0.513774 0.267288 -0.448868 -0.229733 0.021814 0.378961 0.837877 -1.052160 0.061068 -0.127790 -0.104271 0.892376 -0.015769 -0.210891 0.139774 -0.941080 0.098021 0.606480 0.049528 0.391678 -0.443580 0.176863 0.594490 -0.296642 0.054707 -0.039043 -0.047531 1.097556 0.292409 0.271192 0.207072 0.333886 -0.455611 0.309170 -0.135170 0.350693 -0.900925 -0.578874 0.319212 -0.014486 -0.016932 0.970181 0.351518 0.225712 0.581584 0.348199 -0.460242 0.620305 -0.460900 0.191627 0.271334 -0.502045 -0.292393 0.377915
assumption 0.484225 -0.195396 0.300232 0.375654 -0.451508 -0.071141 0.049211 0.365135 -0.019165 -0.149442 -0.296116 -0.077092 -0.063357 0.258329 0.967892 0.986579 -0.276960 0.330294 0.815008 -0.304559 0.101144 0.258794 -0.423410 0.194293 0.234125 0.288962 0.319710 -0.136068 -0.711512 -0.160130 -0.149157 0.321641 -0.381750 0.139933 0.543639 -0.212641 0.209412 0.389331 -0.020745 -0.120840 0.241681 -0.082151 0.221471 -0.381836 -0.746470 0.418229 0.320215 0.497453 -0.025433 0.267621 -0.388885 0.400864 -0.313570 -0.510568 -0.078536 -0.360404 0.010749 -0.008252 -0.677173 -0.066015 -0.265070 0.745090 0.116577 -0.136609 0.283275 0.173020 -0.592322 0.036907 -0.559616 0.278602 0.093459 0.099963 0.009665 0.237485 0.268020 -0.558623 0.637648 -0.259347 0.530325 0.427272 0.310760 -0.491853 -0.038233 0.436669 0.586861 -0.121826 0.589478 0.099458 0.142376 -0.498606 -0.148164 0.420595 0.012460 0.030271 0.268214 0.085791 -0.193734 0.057861 -0.498972 -0.861603
assuming 0.253664 0.067100 -0.761273 0.057679 0.172583 0.208848 -0.133600 -0.142631 0.014947 -0.115180 -0.075821 -0.335901 0.347843 0.903525 0.047835 0.476906 -0.101141 0.220861 -0.435852 0.438759 -0.165155 0.273913 -0.674686 0.222993 0.229607 0.443284 -0.814433 0.119511 0.092593 0.014160 0.210030 0.572642 -0.413692 -0.055732 0.077478 -0.641961 -0.020032 -0.228987 -0.038308 -0.339140 0.066041 -0.556476 -0.183761 -0.226927 -0.148164 0.265016 -0.217465 0.256364 -0.336759 -0.062107 0.014533 -0.409233 0.337538 -0.145529 -0.111314 -0.561271 -0.276682 0.408877 0.519068 -0.165888 0.355566 -0.424067 0.343228 0.112907 0.177761 0.685516 0.365066 0.555997 -0.011238 0.563189 0.094751 -0.496813 0.748608 -0.040825 0.661339 -0.382736 0.345175 0.124713 -0.305729 -0.225189 -0.601149 -0.452175 -0.148230 0.233184 -0.041129 -0.548158 0.083533 -0.246624 0.216073 0.234408 -0.114020 0.680129 0.642311 0.275609 -0.202121 -0.251787 0.084968 0.042241 0.298017 -0.311267
assumptions -0.013450 -0.366617 -0.768832 -0.018318 -0.168457 0.592780 -0.100454 -0.431074 -0.205496 -0.064323 0.923114 -0.441114 0.062149 -0.394252 -0.032200 0.655934 -0.313248 0.558721 0.204694 -0.186400 -0.504908 0.287540 -0.295953 0.691215 0.175794 -0.103264 0.038881 0.032586 -0.102455 -0.214944 -0.647060 0.720427 -0.404533 0.222600 0.469076 -0.670657 0.191037 0.626378 -0.078059 -0.358570 -0.728174 0.176456 0.032799 -0.410449 -0.217809 0.074066 0.845913 -0.438781 -0.036008 0.125255 -0.989789 -0.920853 -0.654732 -0.310048 -0.009486 -0.175092 -0.801143 -0.531169 -0.172760 0.375724 -0.014031 0.485172 1.037366 -0.070556 -0.000499 -0.035116 -0.146795 0.257550 0.159212 0.241002 -0.279605 0.145489 1.031462 -0.114748 0.202040 0.016625 0.088620 -0.080550 -0.705066 0.115513 -0.968251 0.043311 -0.140148 -0.466414 0.184694 -0.490355 -0.448241 0.306093 -0.307523 -0.400320 0.427380 0.461325 0.601401 0.045673 0.997969 0.143554 0.281786 -0.176823 -0.289149 -0.247417
believing -0.069821 -0.746616 0.212662 -0.132980 1.202977 -0.004005 -0.043351 -0.426049 0.902353 -0.096665 -0.210733 -0.151466 0.057708 0.001258 0.137357 0.500938 0.710909 -0.444510 0.164946 -0.595077 -0.193171 0.039095 0.421364 0.508754 0.427004 -0.050473 -0.322848 -0.443189 0.072105 0.230500 0.329479 -0.200057 -0.111305 0.725208 -0.403097 -0.210183 -0.538079 0.313341 0.103282 0.384441 0.488539 0.377360 0.048192 0.224322 -0.514533 -0.066866 0.321124 0.278619 0.328552 0.275011 -0.419766 0.272400 -0.431238 -0.401061 -0.095702 -0.515686 0.091603 1.031551 -0.050975 -0.818915 -0.765975 0.191076 0.209949 -0.018409 -0.398443 0.543894 0.251500 -0.680532 -0.287257 -0.170115 0.052532 -0.619000 0.200009 -0.012239 0.681763 -0.013525 0.110504 0.767495 -0.012979 -0.010206 0.025784 0.479535 0.047894 -0.561104 0.336280 -0.416461 0.545834 0.078970 -0.176246 0.173543 -0.110426 -0.386838 -0.202544 0.165747 -1.169999 -0.250326 0.601454 -0.239772 0.668291 -0.075093
reconsider -0.345366 0.000499 -0.453486 0.000550 0.109238 -0.265243 -0.412829 0.428754 -0.553499 -0.029795 0.549932 0.211471 -0.561548 -0.236596 0.456994 0.326516 0.422184 0.375533 -0.380640 -0.517950 -0.847323 -0.208571 0.073812 -0.197941 -0.075641 0.312799 0.142083 -0.034840 0.714219 0.331182 0.130753 0.847828 0.282088 0.087540 1.154519 -0.958946 -0.539559 -0.112795 0.141424 -0.153181 0.113813 0.431068 -0.626664 -0.023071 -0.989670 0.247679 0.661377 -0.300606 -0.143156 -0.217811 -0.638970 -0.570159 0.421883 -0.640850 -0.029320 -0.395702 0.529889 0.115887 0.009142 -0.586987 0.544746 -0.527228 -0.630152 -1.376859 0.312866 -0.557026 0.720121 0.470462 0.275815 0.312909 -0.246392 0.176364 -0.263749 -0.250609 0.280519 -0.415923 -0.283043 1.233737 0.431629 0.342278 -0.255298 -0.269125 0.549760 0.219627 0.042883 -0.444780 0.230850 0.339132 0.372804 0.142514 0.560801 -0.006342 0.883545 0.352343 0.787894 0.147337 0.195983 0.066338 0.290903 -0.595134
cautiously -0.424987 0.140234 -0.417476 -0.325549 -0.035391 0.184149 -0.863636 0.296827 -0.650832 -0.035666 0.639588 -0.994144 -0.652551 0.265587 0.629981 0.511701 1.020244 -0.175650 -0.325756 -0.185421 0.045721 0.681257 0.409924 -0.099059 -0.032514 -0.244688 0.562755 0.014567 -0.406466 0.234223 0.020719 0.614008 0.000403 0.732101 0.732048 0.050030 0.223056 -0.460045 -0.269952 -0.407666 -0.718731 -0.166287 -0.252730 0.139853 -0.077863 0.226708 -0.456824 0.897971 0.271111 -0.296906 0.440279 0.583133 -0.059811 0.583703 0.256480 -0.081361 -0.122370 0.246321 0.241884 -0.172446 -0.238536 -0.001562 -0.764396 -0.646894 0.156452 0.438345 0.290825 -0.005924 -0.653759 -0.295683 0.009621 -0.017220 -0.433263 0.146968 0.004332 -0.318264 0.589977 0.667837 0.455186 0.056831 0.198094 -0.055936 -0.285483 0.696683 0.056120 -0.577055 0.293123 -0.143182 -0.283722 -0.013847 -0.029560 -0.155393 -0.150599 0.518905 -0.578812 0.962022 0.777270 0.180653 -1.391122 -0.962512
clarification -0.051772 -0.092127 -0.559915 0.166286 0.014021 0.782483 0.102620 0.213531 -0.268551 0.475516 -0.252817 0.103614 0.140749 0.533941 -0.409236 -0.378259 -0.219360 0.679920 -0.330344 0.330812 -0.407603 0.682212 0.140899 -0.038747 0.000542 -0.634784 -0.276980 -0.717471 0.219006 0.049249 0.565618 0.318773 -0.205021 -0.243551 0.746432 -0.116730 0.346004 0.858200 0.440967 -0.230651 -0.687209 0.198087 -0.342523 -0.849602 -0.400828 -0.286299 0.439057 0.192894 -0.564564 -0.139444 -0.900703 -0.383752 0.296064 -0.517739 0.722596 0.438381 -0.472125 0.396106 0.212393 -0.484994 -0.232367 0.653535 0.189304 -0.262402 0.146835 0.200502 -0.126227 0.321906 0.199351 0.381271 -0.240623 -0.096711 -0.425181 -0.725680 -0.128581 -0.265671 0.057765 0.388476 -0.596035 -0.244599 0.815833 1.047215 -0.425634 0.167041 0.048937 0.370864 -0.243623 1.008313 0.744314 0.006018 0.019520 0.241134 0.523815 0.113818 0.215092 0.397875 -0.186015 -0.044658 -0.096306 -1.215168
probable 0.313763 -0.479268 -0.611742 -0.334395 0.218615 0.306180 0.136292 -0.226261 0.158230 0.020902 0.362453 -0.525397 0.619129 0.144692 -0.346897 0.648195 0.483929 0.236518 -0.145084 -0.115235 0.910058 0.376169 -0.108119 -0.388556 0.187802 0.042405 0.357830 -0.076610 0.077029 -0.130515 -0.135114 0.158862 -0.166463 0.389061 -0.933195 -0.032266 0.028681 0.275355 0.495427 -0.395125 -0.637000 -0.440387 0.723864 1.225670 -0.626955 -0.087077 -0.355262 -0.458142 -0.287484 0.408094 0.073876 -0.233195 0.256851 -0.376361 0.090732 0.085126 -0.133890 0.458646 -0.087045 0.082670 -0.181382 -0.751595 -0.198825 -0.349046 0.114623 0.949817 0.509909 0.548391 -0.465217 -0.116105 -0.519339 -0.375603 -0.114744 0.781248 0.358142 -0.296302 -0.209192 -0.432612 0.611292 -0.220641 -0.002476 0.480788 -0.023755 0.368148 0.893846 -0.265861 -0.817054 0.095368 -0.600862 0.588936 0.342368 0.063806 -0.526741 0.058450 0.080967 -0.035797 -0.410722 -1.340953 -0.837129 -0.076237
presumably -0.033816 0.449596 -0.138244 0.251776 -0.283300 0.132131 0.111145 0.002486 0.540475 -0.048431 0.916793 0.485690 -0.014088 0.692015 0.434739 0.015256 0.163175 -0.631180 -0.276136 -0.477166 -0.363800 0.554464 -0.090403 -0.409699 0.145322 0.846240 0.581387 -0.626145 0.185236 -0.181968 -0.496006 0.533749 0.059644 0.218541 -0.096880 0.162245 -0.268112 0.118288 0.336270 0.313341 0.342959 -0.164240 -0.439164 0.065254 -1.041007 -0.375658 0.389120 0.872432 -0.548801 0.343126 -0.645425 0.087779 0.025827 0.048757 -0.694382 -0.224376 -0.091327 0.922451 -0.225074 -0.095789 0.120857 -0.361007 -0.904811 -0.120291 0.264398 -0.057505 0.108408 0.155093 -0.067481 -0.134080 0.020016 -0.153553 0.102998 0.116729 -0.286174 -0.077612 -0.002893 0.455794 -0.452153 0.447278 -0.028214 0.552552 0.325013 -0.427067 0.553063 0.375248 0.193692 0.158529 0.004493 0.123762 0.681091 0.452285 -0.563409 -0.340037 0.126365 -0.064868 -0.291744 0.050370 -0.336086 0.557394
uncertainties 0.571718 0.260530 -0.205230 -0.561775 0.151454 1.227217 -0.584629 0.509969 0.119637 -0.396319 0.256731 -0.021781 -0.174363 0.115999 0.182485 -0.271707 -0.173969 0.776144 0.311320 -0.014496 0.261425 0.488581 -0.666480 -0.231087 0.642582 0.368495 -0.208541 0.342143 0.124949 0.226511 -1.292705 -0.675771 0.321531 -0.299667 0.502453 0.659810 -0.309415 -0.309175 -0.038231 1.134097 -0.682819 0.471611 -0.199210 0.663437 -0.510893 -0.535517 -0.189330 -0.461305 -0.748122 0.113459 0.146832 0.052671 0.419707 -0.521845 -0.055539 0.050703 -0.106893 -0.665744 0.289250 -0.519372 -0.129512 0.402949 -0.369443 0.325345 -0.078337 0.182872 -0.382984 -0.231744 -0.572471 -0.450905 0.226971 -0.935440 0.301254 0.258058 0.196108 -0.278161 0.194204 -0.030369 -0.343020 0.421470 -0.152100 -0.064446 -0.356393 0.020731 0.427467 0.307626 -0.377215 0.487165 -0.267401 -0.585219 -0.179324 -0.129647 0.672199 1.047423 -0.204860 0.495277 0.171722 -0.371375 -0.269336 0.129610
anticipate 0.407156 -0.355199 -0.060961 -0.947328 0.150173 0.060786 -0.338681 -0.701610 -0.376498 -0.564119 0.355241 0.368070 -0.508763 0.376349 0.061951 1.444125 -0.533353 -0.323320 0.237473 0.095480 -0.284025 0.329828 -0.044612 -0.046187 -0.046694 0.346870 0.119615 0.403995 0.503347 0.388181 0.176943 -0.096652 0.017494 0.805391 -0.024181 -0.037422 0.206706 1.018260 0.236411 0.131894 -0.297057 -0.055577 -0.293778 -0.173082 -0.615091 0.588755 0.090850 0.224514 0.046013 -0.252016 0.293057 -0.443996 -0.003031 -0.498306 0.195316 0.171332 -0.728322 -0.033252 -0.642160 0.178254 0.306084 0.651353 -0.161882 0.662356 0.519866 0.448723 -0.497344 0.040686 -0.226676 -0.978685 0.027742 0.109823 -0.249191 0.390248 -0.482815 -0.016452 0.885136 0.265645 -0.043831 -0.308947 -0.092534 -0.467757 -0.411292 0.475574 0.520374 -0.062276 0.069206 0.745020 -0.202669 -0.517368 -0.345228 -0.549862 -0.082646 0.559945 -0.172222 0.240466 0.320824 0.711204 -0.221641 -0.131254
vague -0.219637 0.100472 -0.613797 0.660112 0.544237 -0.340869 0.261558 0.034269 -0.851107 0.165013 -0.002541 -0.245037 0.326476 -0.168205 0.656499 0.605796 -0.043751 -0.130831 -0.398561 0.877872 0.566386 -0.444244 -0.140817 0.310181 0.217090 -0.093692 0.135732 -0.794173 -0.188114 -0.029718 0.150346 0.271442 -0.543673 -0.417238 -0.218203 -0.368555 -0.317805 -0.072084 -0.700760 -0.641020 -0.354049 0.432603 -1.168068 0.398639 -0.028190 -0.411937 0.179752 -0.096048 0.305000 0.423325 0.016738 -0.514962 -0.073979 -0.176327 0.495724 0.575094 0.376180 0.427333 -0.029674 -0.042204 -0.359712 0.332434 0.667748 0.588610 -0.724229 0.161518 0.707327 0.489513 0.427648 -0.101693 -0.288505 -0.704089 0.494898 -0.173195 0.234004 -0.170766 0.955674 0.009661 -0.217316 0.378270 -0.808652 0.403479 -0.229508 -0.085079 0.270524 -0.305761 0.117593 0.818464 0.048581 -0.299128 0.032590 -0.241313 -0.296757 -0.180644 0.070144 -0.086924 -0.157838 0.675344 -0.765778 -0.190847
anticipation 0.260216 0.128796 0.176839 1.080146 0.688053 0.619123 -0.225988 0.693640 0.253982 0.483397 -0.197882 -0.179493 0.129092 0.323629 -0.127060 -0.566691 0.225421 -0.623640 -0.102888 0.338771 0.335645 -0.219590 -0.369634 -0.539062 0.299779 0.294245 0.145767 -0.756334 -0.771544 0.174340 -0.264492 0.175939 0.394478 -0.517240 -0.324203 -0.624943 0.277156 0.361107 -0.452861 -0.508258 0.241435 0.420448 -0.474597 0.631772 -0.282681 0.356739 0.160696 0.883085 0.048562 0.367901 0.423346 0.032687 0.964097 -0.300780 -0.083436 0.263961 0.366678 0.439970 -0.397713 0.050584 0.444615 -0.038178 0.502438 -0.472118 -0.011140 -0.017625 0.375943 0.474199 0.219602 -0.806598 0.256990 -0.166110 -0.405929 0.475914 0.451266 -0.051778 1.076213 0.570410 -0.542520 -0.144888 0.438008 -0.375152 0.089541 -0.100936 0.001965 -0.425818 0.166951 0.548416 -0.189884 -0.021725 0.016222 -0.142200 0.584200 0.452301 -0.440347 -0.323684 0.378714 -0.361629 -0.039673 -0.109508
depended -0.737177 0.258712 0.019856 0.069891 0.219392 -0.041665 -0.387370 0.363065 0.651690 -0.116699 -0.427221 -0.279234 0.023785 -0.433953 -0.242751 0.595407 -0.132920 1.095444 -0.562374 -0.104267 -0.348316 -0.603785 -0.070246 -0.193305 0.606692 0.085829 0.593548 0.260117 -0.136082 0.186428 -0.315274 0.618217 -0.209118 0.136964 0.102970 0.023722 -0.571911 -0.115045 0.439249 -0.413418 -0.049253 -0.486866 -0.109609 -0.281778 -0.593191 -0.226752 -0.608460 0.153248 0.200499 -0.725790 -0.545593 0.025117 -0.180851 -0.283303 0.654690 0.384868 0.787371 0.252536 -0.090527 -0.210699 -0.429199 0.394041 0.293809 -0.141850 -0.036794 0.742774 0.286076 1.218555 -0.653640 -0.484283 -0.023321 -0.267002 1.080652 0.429534 0.287717 0.592793 0.491649 0.552827 0.146759 0.372018 0.856835 -0.202992 0.012195 0.081707 0.696994 -0.210736 -0.096044 -0.117094 0.307858 0.431240 0.155870 0.314893 0.759027 -0.586177 -0.037137 -0.277127 0.119718 1.052139 0.112762 -0.051185
random 0.087485 0.721500 0.062068 0.203838 -0.255191 0.054105 0.707268 -0.256508 0.408857 -0.141399 0.104269 -0.316873 0.119885 0.900421 0.006286 0.259933 -0.466151 -0.621928 0.852515 -0.431348 -0.562058 -0.403702 0.062852 0.864016 0.020167 0.071151 -0.391061 -0.647571 0.268567 -0.579468 0.656356 -0.085191 -0.640857 -0.376256 0.368723 -0.638271 -0.555740 0.451623 -0.282067 0.474597 -0.222158 -0.266228 0.473938 0.487584 0.634416 -0.309915 -0.071363 0.110181 -0.686162 0.441994 -0.126624 -0.487909 -0.022118 -0.212477 -0.010175 0.149309 -0.010079 0.053192 -0.091887 0.479095 0.021571 -0.649077 -0.906056 -0.320614 0.052115 -0.691701 0.350697 0.047352 -0.275870 0.167519 -0.790946 -0.852636 -0.585723 0.124826 -0.143519 0.045416 0.090475 0.118173 -0.205697 0.178045 0.014559 0.082343 -0.933333 0.150038 0.996788 -0.773249 0.063449 -0.527327 -0.394720 0.374127 -0.062258 -0.298751 0.017474 0.111220 -0.279847 -0.090864 0.173667 -0.448993 -0.277429 0.274884
vary -0.499755 0.676957 -0.366328 0.084911 -0.685192 -0.206175 -0.369877 -0.096131 0.025469 -0.450996 -0.410490 -0.424892 1.308889 0.255719 -0.144373 0.113382 -0.659101 -0.045472 0.745230 0.100599 0.433706 -0.418031 -0.303666 -0.357366 0.174656 0.264665 0.190323 0.013865 0.111774 0.481998 -0.883952 0.372899 -0.061611 0.441886 0.118496 1.032193 0.626150 0.237437 0.349257 -0.716390 -0.566880 0.030177 -0.016305 0.001441 0.057398 0.294768 0.474638 0.271314 -0.323409 0.418652 -0.194518 0.243721 -0.287639 -0.193864 -0.610392 -0.415731 0.212345 0.832755 -0.650711 -1.784618 -0.347460 -0.007297 0.223898 -0.474058 0.338824 -0.424065 -0.013511 0.752774 0.159443 -0.280552 -0.172720 0.624739 0.344027 0.384037 0.410965 -0.121109 0.888710 0.014000 0.242755 0.731667 0.517345 -0.796416 -0.199534 -0.635427 0.657447 -0.430673 -0.526755 0.891600 -0.074333 0.053561 0.065066 0.081211 0.449709 0.558594 -0.425466 -0.381686 -0.422073 -0.092180 -1.147214 -0.229366
speculate 0.598680 0.441019 0.906981 -0.283887 -0.104398 0.006299 -0.132436 -0.181108 -0.309490 -0.910258 0.114783 0.115800 0.810318 0.535385 -0.363272 0.544921 -0.390855 0.801620 -0.095337 -0.242324 -0.022423 0.571231 -0.575053 -0.237003 0.444903 -0.146828 0.667904 -0.031649 -0.475713 -0.625689 0.255630 -0.087690 -0.098323 0.551998 -0.161614 0.476042 0.058634 0.352224 0.012931 0.062778 0.238313 0.371611 0.361335 0.539090 -1.516097 0.535574 -0.503130 -0.085442 -0.439242 -0.048892 0.148005 -0.510090 0.289825 0.019244 0.086487 0.102625 0.104479 0.185886 -0.557947 0.162330 0.954416 0.258618 -0.058109 -0.208845 -0.122866 0.491785 0.209809 -0.234126 -0.043536 0.151301 -0.670887 0.085977 0.360483 -0.466412 0.407921 -0.580951 1.206417 -0.443092 0.258424 -0.381321 -0.307010 0.550662 -0.199021 -0.385084 0.457343 -0.487546 0.073056 -0.280527 -0.157273 0.232217 0.673381 0.590890 0.074353 0.453874 -0.218888 0.461112 -0.582322 0.238492 0.237369 -0.350744
tentative 0.645532 -1.300323 -0.213755 -0.427506 0.893708 0.369431 -0.228834 -0.862631 0.462443 0.178348 -0.186518 -0.070384 -0.060241 -0.004716 0.624842 0.091801 -0.170927 0.471247 0.420249 0.003021 -0.278851 0.070505 -0.822694 -0.127442 0.637807 0.286788 0.628402 -0.249446 0.241174 0.138368 0.464292 -0.150426 0.101850 0.380137 -1.096525 -0.498485 0.281592 -0.172211 0.267448 -0.249611 -0.618699 0.159517 0.012157 -0.335904 1.133940 0.052534 -0.080028 0.410705 -0.463493 -0.586771 -0.184965 0.326302 0.390474 0.035796 -0.210246 -0.063951 -0.185995 0.583264 -0.436841 0.119560 -0.021760 1.421880 0.052258 0.279973 0.329990 0.198335 -0.131288 0.971174 0.147043 -0.923327 -0.161207 -0.351016 -1.013995 -0.133015 0.328917 0.334572 0.055114 0.892266 0.747052 0.610126 -0.089094 -0.284760 0.011056 0.505485 1.131574 0.176725 -0.399500 0.565183 0.382688 -0.008831 -0.542518 -0.732550 0.371567 -0.120827 -0.420144 -0.957405 0.361938 0.128040 -0.007898 -0.290647
revise 0.709759 -0.181936 0.080984 0.364512 -0.007788 0.274762 -0.252764 -1.016728 -0.144047 -0.172627 0.253113 0.005469 0.086702 -0.382668 0.637783 0.218483 0.026785 0.684481 -0.217125 0.289353 -0.729591 -0.177731 -0.590603 0.445169 -0.235486 0.275864 0.264856 -0.394839 0.546018 0.595542 -0.096368 0.027546 0.402281 -0.476887 -0.327657 0.325074 -0.152509 0.745438 -0.029653 0.190874 0.344737 -0.674055 0.109286 0.703843 -0.341035 -0.909211 0.559650 -0.214349 -0.298969 0.960687 -1.025549 -0.155519 -0.059568 -0.301001 0.060903 -0.137332 -0.379739 1.199445 -0.116081 -0.237126 -0.463745 0.212551 0.325137 0.018584 0.039267 1.003951 0.417830 -0.256915 0.295002 -0.414435 -0.384288 -0.342904 0.236296 -0.384237 0.312875 -0.455350 0.326487 0.821991 -0.485095 -0.190075 -0.695189 -0.978767 0.490738 -0.343092 0.025464 0.058088 0.355607 0.311211 -0.664423 -0.355193 0.120466 -0.338948 -0.704324 0.319405 -0.394055 -0.201551 0.361422 0.820912 -0.512383 -0.548916
sporadic -0.827591 -0.195013 -0.608708 0.408109 -0.051431 0.378220 -0.840211 -0.019714 -0.014843 -0.055504 -0.504250 -0.171032 -0.562251 0.021382 0.400985 0.279757 -0.371147 0.470063 0.400566 0.059333 0.763238 0.944986 -0.765768 0.401507 0.422544 0.487183 0.015001 -0.857763 0.268226 0.504266 0.878437 -0.925783 -0.018168 0.365693 0.064945 -0.024437 -0.452683 0.072678 -0.711778 0.829018 0.400885 -0.342104 -0.317000 0.508738 0.368365 -0.176749 -0.501748 0.469494 -0.377348 0.063466 0.478148 -0.142714 -0.564467 -0.140780 0.377277 -0.250866 0.119292 0.514394 -0.295691 -0.194985 0.190109 -0.357088 -0.704003 1.050046 -0.563119 0.154303 0.920199 -0.681248 0.320956 0.003698 0.353653 -1.216888 -0.221544 1.250219 -0.287528 1.463786 0.107341 0.922160 1.878338 -0.095590 0.125631 0.087303 -0.136147 0.198904 -0.605590 -0.235531 -0.634219 -0.185088 0.074294 0.468891 0.151939 -0.796936 0.355941 -0.221910 -0.439092 -0.142254 0.704873 -0.714939 0.996789 -0.491207
